Q273_R39	-0.0029698899196869016	-0.32018081607412685	-0.10322881894441571	0.018131940549803313	-0.12420634006284574	-0.2511442332065136	0.02731642201315181	-0.19910744055969687	0.3264622574626659	-0.23517739936698423	-0.12006323920333384	-0.39567223004199226	0.35055554338979744	-0.480081225629004	0.18816466557295283	-0.38068235885536594	0.285563375196847	-0.09904536132497425	0.02541362856115418	-0.10976112531989081	0.2880947931313383	-0.20588891920378957	0.25809765480911	0.1725517881394142	0.1687558421705355
Q273_R39_C1	-0.18405442681637274	0.34401002696399363	-0.25180386223251255	-0.10850036054898107	0.37545267923712156	0.47472960848145	0.21510508548352297	-0.5377136720219378	-0.34229311920269584	0.5193977444956531	0.22314140168819813	0.3477855470443248	-0.36701765094131517	0.31639122443357715	-0.2704236937138473	0.5070540576139669	-0.5465611766380724	0.2691019059599825	0.3373980645459638	0.5377177899533722	-0.4129714286496009	-0.011957270256078657	-0.31527143001474006	0.501535322522207	-0.17354332231196037
Q273_R39_C2	-0.16525960663925698	0.15656948778751914	-0.38115304929960164	-0.0035355987877838473	0.06408373058206478	0.25134241466271906	0.32978166277380183	-0.4546111480067001	-0.33607712246348886	-0.01791562437482657	-0.011968414525263774	0.06693724135427126	-0.19234378706452335	0.24883446460339628	0.12887199838684013	0.293501834438777	-0.3058634941259995	0.08024990289101062	0.31092726349189553	0.2875902079998623	-0.22628300134665486	0.17940677975204986	-0.013782886251663568	0.3228113760018692	-0.19143985456345486
Q273_R39_C4	-0.07972584160752279	0.3082967650091821	-0.391478509875937	-0.2647629352623807	0.03480172890496879	0.39484415010378765	0.377234550677366	-0.5289411775743013	-0.401794289059301	0.4107214176458929	-0.021684379385328877	0.04943259822714297	-0.3232173293782366	-0.13905585606816578	0.029250684890461967	0.3744301496640831	-0.3873498167036412	0.29781512533707816	0.3458480014967071	0.3794296737737778	-0.2589983008511017	0.0630560474870902	-0.050993908668829475	0.5409152384282468	-0.21839175982267825
Q273_R39_C8	-0.11925486616127899	0.062031200116673436	-0.10860712229304424	0.003907609934913863	-0.018166531702807357	0.11846326597183915	0.060578315882484905	-0.21247164177282052	-0.07880359632125689	0.2640315660967462	0.018398792537518794	0.011738649664793713	-0.008459719777677762	-0.07355977907814838	-0.11700497659902333	0.1058257075692577	-0.24457526121788817	0.2007952696286925	-0.15639127028306754	0.19362744352981553	0.01957797917440777	-0.03872290804799249	-0.10001861434995622	0.19034624466405406	0.028618246097587858
Q273_R39_C10	0.16143793655137179	0.22043428436261409	-0.41485901849967866	0.05084885198124867	0.2761694535838982	0.3395291001851467	0.29931506010122666	-0.501774434835589	-0.11732776219473659	0.3203105718201724	0.15929896418783512	0.19536165011936704	-0.2953092997558922	0.22885936195722698	0.14999196688815164	0.34530842823465296	-0.5435378953496894	0.24116304033764605	-0.032742849056593505	0.4448662068473116	-0.16711066455998003	-0.0034904969167860594	-0.22906359324290534	0.11003152107094517	-0.23782969683905852
Q273_R76	-0.0494350755147763	0.22173604412776013	-0.10892195374025038	-0.085662984791161	0.1160965229602049	0.2716671390912009	0.3445078428066786	-0.28388485429505805	-0.3036229494448	0.3368040171987614	0.051539787177104016	0.12647340111299799	-0.21949947646336115	0.11456684676640062	-0.04777484152529095	0.27798400896887376	-0.3030182544845244	0.15585354322346937	0.29792441217353166	0.18044647037617098	-0.195735782062538	0.03460444625932077	-0.06354989638872788	0.30026787774763086	-0.07621465589946749
Q273_R76_C1	0.09317413263952318	0.10999413997652921	0.05730315046364526	0.10895680608387001	0.14065464277585246	0.09822058993447266	-0.07393406271625541	-0.17048479904428185	0.1035330969442233	-0.010731746195276873	0.01929624750739482	0.22240246520706514	0.22325850590635007	-0.033274637251322146	0.1340762563429422	0.06893699247553199	-0.09662027844881507	-0.12419675730311482	-0.07114695419226848	0.036245016072238644	-0.18476593279457115	-0.028094468512846294	0.07898316069437114	0.1980768222546875	-0.11133326475130793
Q273_R76_C2	-0.028802523526515623	0.04814629435452671	0.09308213094793186	-0.11926504290272354	-0.1995295896896426	0.1529652281405958	-0.015417209585995257	0.12699851020744224	-0.12536162252546218	0.06531058855536492	0.010738771515286648	0.028336967934418197	0.18555090531809385	0.03920912448534418	0.019869946439569495	0.011135719143182147	-0.12305890097353164	0.3262419033671236	-0.2537309152205901	-0.10278387511862148	0.14381088533307376	0.10238588032747847	-0.20404319092257084	-0.017051171129304935	0.11636078697463541
Q273_R76_C10	-0.06382781034318276	-0.08494571262179768	-0.18861731679976843	-0.08468620387589652	-0.15306536842720506	-0.03658450043936628	0.03893486163589557	-0.04496371648196763	0.043800492118597247	-0.23559115848856865	-0.07096698550109269	-0.20705513432016234	0.2568491534574845	-0.2596781996209021	0.21672082719027025	-0.026521467162593623	0.1729367058615716	0.15488289146319462	-0.06464004196630346	-0.04944046253754709	0.060710970329050644	-0.026186885983446737	0.168271173371446	0.32261018592829627	0.1342511867523419
Q274_R68	-0.08658922704466404	-0.005139903185135891	-0.03240658177253704	0.044704460583948634	-0.13090515372863507	-0.02078719342579091	0.10314579982425325	-0.061387590134867394	-9.42031480299296E-4	-0.09180686579774658	-0.1451139473459262	-0.15183174786242484	0.051729927097749206	-0.2385957573519937	0.15728303052002351	-0.04184481274980109	0.08403275542285003	0.0957626892827024	0.043180348387528954	-0.09969546004559718	0.12063537466313576	-0.02841076278342585	0.14728706836543373	0.01300233167169035	-0.009515809553669501
Q274_R68_C3	-0.03830457289145757	-0.08670829511445151	-0.0180775370474005	-0.11984130478866838	0.006453435415499241	0.026728253788476136	0.05741068430615652	0.005832654468405991	0.059618257590240406	-0.022730551220713095	0.012651524395666103	-0.1127112538332124	0.06931179847736829	-0.03247802986580079	0.002145486156862431	0.0136110249834055	-0.16333529789216597	-0.09554964579554469	-0.017555384268479073	-0.02624898585018251	0.11099167977441485	0.057746069464722084	-0.018149992041879996	0.054964521390375436	-0.02729020861607497
Q274_R68_C6	-0.17553438719843523	0.3276736143428272	-0.2761341134604681	-0.12121974975822934	0.21288984888374685	0.284610553572181	0.21993717114385977	-0.5075139143039712	-0.24737660736126732	0.5038611699865991	0.18089401447055836	0.18121053590142014	-0.18249864340996366	-0.06387529053948791	-0.30501418196075997	0.40145159177250994	-0.433312314433169	0.2464959777073654	0.11628243909713068	0.4513957706818237	-0.2870061449066178	-0.07036946639959774	-0.21306775204758358	0.4687186302036538	-0.10274479489229701
Q274_R68_C10	0.13053158041693144	0.1830909644986177	-0.30881379736955133	-0.22364407329098845	0.24384603251290304	0.35450489352322273	0.3633610048887289	-0.48366412757390437	-0.07052266506832285	0.5394783374074681	0.187547877584507	0.07785103797150301	0.061101039862513425	-0.05729200395297284	-0.37910638768213045	0.2664838076543525	-0.47520325838474214	0.23636517022895528	0.1385842464036653	0.39021264807086437	-0.2646881187903821	-0.12717276871454722	-0.35041063695447033	0.45745076897216536	0.01984495876864478
Q277_R4	-0.07681033084541075	0.16184802849686883	-0.16833760672072715	-0.24542006749430265	-0.018315661160587377	0.08651434722146638	0.3376921264725475	-0.4363219602302516	-0.0724505753343185	0.4684380074639285	0.0043758627762870385	-0.18021362078269917	0.21008652021261032	-0.35616396570325803	-0.04518369789676518	0.05841319030806583	-0.41044192463687007	0.19966928701045172	0.1387471587927004	0.1518204444055692	0.2052590235101202	-0.014271844779231132	-0.0408959397589501	0.46590324930757115	0.0016804923448013602
Q277_R4_C1	-0.3273869209534122	0.44221293940791884	-0.4025741033132065	-0.2996749183933798	0.00948088735882711	0.5151523728849953	0.5939057751478606	-0.7235652440829733	-0.47617352804156293	0.7207514201758766	0.12328541838040069	0.30031916291462574	-0.22352989954429783	-0.19607116843187078	-0.16041741199330486	0.52014554385115	-0.6341499137270417	0.19371696383901876	0.6635022631696693	0.4606726217670445	-0.32892858351500753	0.10195960416846758	-0.11620621638779029	0.685190932691734	-0.2688239636510443
Q277_R4_C2	-0.058026345570400636	0.18071443982481267	-0.08172365784843356	0.09374485190607042	-0.016272382487155942	0.11979100467499001	0.07094994269129522	-0.1616997022839023	-0.0901311870087991	0.21395319325951692	0.004331588622916918	-0.08590995549315687	-8.211385854708807E-4	-0.3448719584786914	0.022233590970580374	0.130786801672317	-0.020489635595546646	0.09309768577476867	-0.2556761452860087	0.10694491759210538	0.025414792584041147	-0.0010078515112751795	-0.07703110235885234	0.19438195473430095	-0.029151033893068737
Q277_R17	-0.08263806226280924	0.008006867280866099	0.03901292818515975	-0.007359499279951305	-0.04859728810189953	-0.0046809187624651995	0.006181220405635187	0.07438971851554638	-0.07266495164611443	-0.034592752788736365	0.031167455321940696	0.005895735451905995	0.1008334545657972	-0.022002761270852305	0.02548510372250029	0.038291759733314314	0.001275326925478108	-0.11068936367570369	0.007718140789106399	0.011176306754164514	0.005837828181557214	-0.03423831920255636	0.08043854933224116	0.04470171887322412	-0.08560664308500374
Q277_R17_C1	0.10003449311554193	0.2946531607476661	-0.24297417950806977	0.2006427053967094	0.2981153636898184	-0.014805519953826474	-0.16824431816865873	-0.23655322929385306	0.3114956494824414	-0.08719103923421	0.0353425710487853	0.24482515808331934	0.40948797029241496	0.04392939941110855	-0.06231833936129398	0.14195120132015318	0.14409729026851759	-0.226124137067806	0.309314430283849	0.20315835716543848	-0.3332938596520923	0.005331966799239998	0.17466681442265736	0.2778960337819593	-0.022380273981935168
Q277_R17_C2	0.004291765995501179	0.210215704342376	-0.4133579145568211	-0.05641463967695472	0.2577470789934065	0.2692120684476787	0.35992243034904514	-0.5142920738560667	-0.23353517042126531	0.25641518874235464	0.07799524338845554	0.09734749943543695	-0.23574894325236254	0.15826386255253289	0.11976647698563544	0.28536987498191924	-0.5001321800721321	0.2621561388609413	0.20628263304285724	0.2638382288154725	-0.07294717035217642	-0.02705518870434249	-0.17311526257087867	0.17424926273477273	-0.22652157769011153
Q277_R19	-0.01082280758163508	0.04661604735724419	0.11593141838857174	0.09347537545549606	0.03474677478603884	0.05481488274307535	-0.008920143162997494	0.0450512251864674	0.013106854031133432	-0.020679630940065086	0.09864344184910272	-0.09781625814998414	0.1053663261727955	-0.042918738801730534	0.10353291461923834	0.06437203383420492	-0.05459722664556726	9.809497807155426E-4	0.08827928605334384	-0.0126990461870098	-0.008257025124745665	-0.01133976230225489	0.14459333367197671	-0.08039663621293451	0.10244028588203631
Q277_R19_C1	-0.052033238300199666	0.2537229736983272	-0.27482779259071116	-0.3868795761507201	-0.09020365663178759	0.19045581070405673	0.4093833602638061	-0.5897787936476614	-0.33737614595113996	0.6124334556379173	-0.09882802522666866	-0.06362375400009906	0.10545579111758026	-0.29277628012823853	-0.16909751496297687	0.2197247485382622	-0.43284037990604374	0.23064377348444917	0.2911633526498019	0.3263297040344047	0.01613448714393846	0.11632681991769393	0.11610774947763546	0.5922192124478758	-0.07312254576744036
Q277_R19_C7	-0.03844291675181354	-0.13507767471852705	0.08875267221137104	0.11679075737454733	0.08596714655369063	0.05588551902482677	-0.14152646209463537	-0.23440245232132217	0.10538514922940287	0.10733639953760149	0.11114172410604264	0.12422955244463375	0.18299435245505535	-0.13534256905402475	0.03447587153457271	0.14760881499216033	0.14332378386491915	-0.0694628171826462	-0.01878719382823432	-0.303284061732125	-0.0640655388795053	0.11782143009183173	-0.21340097118303036	-0.26583503419499405	-0.13995097061518216
Q277_R19_C8	-0.1920362574757467	0.3288906812039345	-0.3295931374942492	-0.15820597919383816	0.2319168779377286	0.3516551626440688	0.27139796444160436	-0.5432244664983917	-0.32935105169136114	0.47456973724276474	0.13888123630484248	0.22838335548039435	-0.2187384251317759	0.01637405719012216	-0.24083815043169485	0.42047204776353375	-0.38406578089224874	0.22714419366855143	0.27555927435952376	0.4525534440760915	-0.3493057678333854	-0.07764000025264046	-0.15584642054011105	0.5417155050994211	-0.16834950545839278
Q278_R41	5.040495263434034E-4	0.1412545808149382	-0.14387259646071807	0.05244092504339641	0.20064057872638105	0.06144134254077761	0.30556342610017717	-0.47036571898216867	-0.09202074374411573	0.21576526651900724	0.1576233137433018	-0.1436087469413388	0.13937908454563244	0.06518235939121947	0.08354776595913055	0.07089083825723426	-0.3979000046241873	-0.06828550237046727	0.169235107001557	0.3263393104359224	0.14488308061497182	0.031307076710528924	-0.10767157871059292	0.34606360907279693	0.016562752036312692
Q278_R41_C9	0.02895341015288567	0.19366754667830544	-0.06904007341035383	-0.056279727739578234	0.3310636770980659	0.3331746428781282	0.07709433992126978	-0.4883289462526135	-0.024045026960632956	0.35462164858364004	0.0949027276607529	0.24918174545661892	0.013289340819776403	-0.11578331442974812	-0.042881125179163225	0.26680651170580727	-0.24948424214137635	-0.04577457947977769	0.1982772879716902	0.1621377909021851	-0.2882930476717125	0.11357868922952818	-0.044414902956049385	0.32497655661489394	-0.24531585974980824
Q278_R41_C10	-0.1833490492203456	0.37005743083478304	-0.277970130318421	-0.041237181587993374	0.25553489218909764	0.41271780064399827	0.23917452761634966	-0.44969975158666736	-0.28809311283098726	0.46865555022537514	0.1137483806891288	0.2823321766101509	-0.28246817167960264	0.13965083767861286	-0.1768492261354187	0.4487759146786751	-0.42606725449053595	0.2673766091966701	0.19618192365889822	0.4510187633108049	-0.30501739829478713	-0.007967681373147092	-0.336120049292849	0.5116568027989375	-0.08589770378805707
Q280_R19	-0.1142665700339673	0.014452469298562035	-0.08188356644344526	0.041819945394220535	-0.06954798696523296	-0.01855418628779624	0.03890484141961137	-0.005995273862799818	0.05751391394322149	-0.236649436757478	-0.12916226317693907	-0.14414926011369533	0.02361260719631771	-0.11748302289913294	0.17745906304670045	-0.10310646014361191	0.15885691174051697	0.05591513883938255	0.06499071121071437	-0.09610517155527687	0.06613287992083587	0.002701464248607503	0.09400174496375285	-0.04219791929832059	-0.029316635626746235
Q280_R19_C4	-0.10767857425204114	0.24607316502983873	-0.3579814944153625	-0.3128260503087142	-0.10147915658850382	0.3000096712310183	0.4237748187575878	-0.5463362292809375	-0.38140913304004254	0.44157082340212134	-0.07281047701053969	-0.05647684807329247	-0.13474599954328706	-0.2849714601815533	-0.01013942454104174	0.3048641309737601	-0.33378001280198727	0.2926570555244884	0.32886840409857726	0.2097197281015385	-0.10645856301895408	0.05222807477637596	0.06914507894161415	0.5327594070155522	-0.17606900530619643
Q280_R19_C8	-0.09611473770725774	0.3158544884510565	-0.2826007886760791	-0.2776326418016526	-0.03475262016834049	0.2541128084614007	0.47689838183278505	-0.6168182414776148	-0.29260908507243244	0.6361040024376092	-0.018771124780260457	0.06841670103258483	-0.12861894178087954	-0.23227315815364494	-0.12790421415225078	0.199573767970068	-0.487166691141817	0.2777775099756179	0.5437684036975702	0.2902159155173022	0.006264949927381302	-0.042001971344172634	-0.09453087169670882	0.597909583893011	-0.16137387393052835
Q280_R19_C9	-0.06461232221497296	0.21208844835719012	0.04279825547214064	-0.013900844177948663	-0.025763052683810485	0.17605744575752932	0.17402724906829914	-0.21794013344810054	-0.15261575701256885	0.2751640604213648	-0.040381089876176	0.052149870820245955	-0.0347969600511065	-0.20138229808230482	-0.05696733727460627	0.11616366748681235	-0.11693493174753214	0.05448763720424656	-0.12976570881620228	-0.03739160070824181	0.17222399961672302	0.11624354796748654	-0.2395225431443689	0.22134660813900825	-0.008347827970756156
Q280_R19_C10	0.10315325133903579	-0.0884869838991234	-0.02972859664941921	0.11392996535800182	0.05989540573268143	0.050865479669075606	-0.016803717383906125	-0.35055239095274404	0.022154849432257418	-0.12471446225619919	-0.05897037691573347	-0.08644928799979519	0.2408382278886262	0.1275952282924159	0.19581609200995415	0.1328882417537444	-0.07307918996706633	0.09912837783885362	0.14657603909301767	0.19602557615109212	-0.06191155519182888	0.09155633270331806	0.1756146791817607	0.2591169526009841	0.044266271642492964
Q280_R41	0.0658364725333284	-0.10105524685409231	0.18517859016577073	0.014968316307719436	0.056344026893815284	-0.01700599011253402	-0.04192588278266754	-0.062300593560614605	0.0812196584202491	0.06566112779561085	0.12505090819243325	-0.03792229538427106	0.08693446730549649	-0.1568359582979714	0.0047291857465854735	-7.231562551618019E-4	0.03990034705814348	0.05958889206921784	-0.06658699932237315	-0.1837174315332399	-0.11216786880218976	0.0013906548600764498	-0.08157815355114548	-0.18572057447868487	0.03938965851149652
Q280_R41_C1	-0.030577714430604343	0.30593738222064193	-0.35910547748566873	-0.036411830746987124	0.15480969217469434	0.37750851118718126	0.47153789613161584	-0.5401825951894785	-0.2806070068421456	0.41667528125105624	0.1978920736717082	0.08876815985927132	-0.07623031542424101	0.33615285140363477	-0.002690581188739361	0.16119934614675338	-0.478440708321433	0.05869324065760117	0.2937417224510789	0.4608515102497809	-0.25866821184282734	0.1447309466642566	-0.12009105466622919	0.512636937840679	0.0052044889444910584
Q280_R41_C2	-0.24232559130739295	0.5141456428945186	-0.3989157775254564	-0.20201895101270678	0.523224579500604	0.6250734436262699	0.3643694471596965	-0.6624622246410392	-0.5034148332450723	0.7002641494200575	0.22167500645018473	0.5170349263187555	-0.5303562982782302	0.545197365298914	-0.45048191023210926	0.6759640826515745	-0.6988003491005973	0.32132695456252197	0.6170599185553876	0.6576131779202764	-0.5561727799624742	-0.011614079231643155	-0.444242523726803	0.6716280220483971	-0.17666435000832872
Q280_R41_C3	-0.021101943219419966	-0.013102317284902402	0.022699488593307334	0.1846988253814407	-0.093240668425165	-0.022910425408474364	-0.08760762558421693	0.07667996329888804	0.08342664020944604	-0.19952588177767291	-0.060082834635768696	-0.03489934194628043	0.10695233470812066	-0.11123038665482007	0.16684136396018007	-0.16893001317235784	0.1377635782493246	0.12037512323484739	-0.33273981755911086	-0.07117797884051807	0.14984554661626803	-0.006298517609296138	-0.017570881171314733	0.054096686557469464	0.1251321089219861
Q280_R41_C6	0.12794711311769394	-0.012044827126644385	-0.04040457059010629	0.05659178630339896	0.011165409456961255	0.011123748863573701	-0.02703679703763359	-0.16383855928772828	0.11900699000463202	0.08206602468079932	0.1836894250821077	0.07550704938601208	0.24618933786218736	-0.02433743701605869	0.047637446839165695	0.03090786554442459	-0.16981429953165247	0.0031183050392956627	-0.08213102323247155	0.17141037362576844	0.03162312198482309	-0.07168655873057797	-0.017801941279101563	0.1142275250461687	0.03426162856821408
Q280_R41_C7	-0.014200647346123202	-0.016538924907690652	-0.24586338170337818	-0.1166777036928934	-0.12708209576210913	-0.030606683560633816	0.1855686586887087	-0.21313736285272208	0.020818807125075216	-0.005694983719496234	-0.024099367696508212	-0.27418497182177365	0.2935345902535967	-0.35572193648865885	0.11723727960727964	-0.12076229665246468	0.11960080289659022	0.2418487482762828	0.02332930713127325	0.07849803795204242	0.06648685501565661	-0.09193684831918222	0.1088848457300433	0.39566550168952525	0.0891703705967612
Q280_R41_C8	-0.10424292039747009	0.2577351925380222	-0.3469409855297897	-0.17686933636099772	0.06427637731687286	0.32121214226251665	0.4951640876917635	-0.6002940441133475	-0.28200804885850855	0.5831259881056539	0.09654332522745125	-0.13737371176844246	-0.0053770387976804284	-0.22101697820744773	-0.06665522671947703	0.17493321595648148	-0.455898185726047	0.1001693941028321	0.41101413363964195	0.28382457503931807	-0.0072768779330379205	0.002768404910839586	-0.05114335206533179	0.5591094223861713	-0.07471215678119769
Q280_R41_C9	0.05509021692336962	0.0719345550878384	0.00783632833178018	0.09637605334154732	-0.010313682861830906	-0.019472848954883635	0.00819511816925303	0.016432678440093683	-0.02791985628879999	0.045216234415950456	0.12382503592168072	-0.017684095737134312	0.19012433001542514	-0.044467772415111836	-0.022725834828485364	0.03405609828923885	0.04398413708099305	-0.16007296247944788	-0.05725826903377327	-0.0015713328692756221	-8.386066715139613E-4	0.009792913554234457	0.043957646983150245	0.14348462786397576	-0.12038784291023227
Q280_R45	-0.13640204674936268	0.32530506155463923	-0.22130968010898158	-0.19236401036814907	0.4051841090650394	0.4123502935222585	0.32047499381588834	-0.5408252538752624	-0.2809361339432739	0.5360544866403966	0.17512653256047464	0.3455999678460812	-0.3788192449874882	0.4425404874911204	-0.32039594759321083	0.4501032318787187	-0.5831494697048741	0.14721069211559948	0.4979303255907675	0.5262709182549768	-0.37488473179466025	-0.009478535125625187	-0.29444384514175836	0.4829753271854042	-0.10537357269987946
Q280_R45_C1	-0.03146642770795201	-0.014448448822866684	0.015744879936923226	-0.05873661856513059	0.29099867254700573	0.13684984426360625	0.07783923830508867	-0.1660735645581681	-0.01573685027674916	0.27712467634813054	0.09616792775483399	0.00406539858824856	-0.16158784417965014	-0.0435129778357311	0.035844555299588465	0.1315750569361407	-0.25252222368474186	-0.0327417742696348	0.07755537492015871	0.030603454331607303	-0.10710289196838582	0.07678555239254534	-0.16756203038731554	0.2389614754727421	0.06280343997357798
Q280_R45_C4	-0.0657860702012905	0.05547247997017759	-0.03674633694832412	0.09842841173142042	-0.10226247023197674	-0.13385372621744612	-0.0542757001494317	-0.004775529529992119	0.06112648962307145	0.08960661535975523	0.238034277464652	-0.09972809626826777	0.3040211895581364	-0.054032742166963035	0.04620351124183311	-0.03677405892711932	-0.03066594043667694	-0.15018383925984005	0.08914870335040063	0.030427126508951366	0.037712616690683	-0.10320982596449564	0.18933611758314262	0.21074895173867997	-0.1134536931568706
Q280_R45_C5	0.1742702864308056	0.015573799703517598	-0.3032214199509035	0.0518390551929361	0.1031047533044246	0.03874424090016162	0.20670046603413086	-0.47389763151050257	0.05782229502247975	0.2455551313984949	0.20482041220421987	0.06814095588497156	0.22169736626713155	0.023681916492077508	0.011044364857138514	0.11227971973145676	-0.4687546423192218	0.0207378530940848	-0.19889444913565887	0.4041795376115588	0.03867181826956869	-0.038246090206702825	0.0644063862352521	0.3610991768648065	-0.02347635136260032
Q280_R45_C10	-0.16108646923648812	0.3277101151306822	-0.2240016597765467	0.03434926892290724	0.27643401749598284	0.3694580077659775	0.2299438589536172	-0.45839723565376544	-0.17141903375624962	0.45808804672620834	-0.0017664767404965232	0.17986090410657263	-0.2190212954708911	0.005257714321284289	-0.09510326244804218	0.36760359957589317	-0.3969668311843281	0.17839194763841484	0.169338093706633	0.38174280041659436	-0.16496567540446366	-0.02430489484081804	-0.25594566487038606	0.40124160359924804	-0.042507640745903796
Q284_R29	-0.08404745732725294	0.019337970510388918	-0.0220401271648214	0.06892383930624903	-0.07387771473748378	-0.0012733137388847243	-0.06447039235061965	0.04946506076892231	-0.059608265809607215	0.049594179215580514	0.10737482536356259	-0.09613422201369315	0.12416775694921992	-0.12631063740469872	0.01349228049065715	-0.012947800786267439	-0.04396412021182872	-0.11158213070732217	0.13219650541566785	-0.028760271760716466	0.02103050133800277	-0.015862283242830608	0.06382334484170418	0.08863065031567256	-0.14733976568811133
Q284_R29_C1	-0.01921509834554181	0.004645031661600594	-0.07764140508661861	-0.006042538320956097	-0.0375491800194317	0.02356843718674864	0.04244366193910917	-0.12918838858984003	0.010427902555190336	0.003426401004332606	0.04793067208667201	-0.011076994652702178	0.04653679351393535	-0.10422505347880147	-0.0020598678015289417	-0.006240700618831407	-0.03608429836414678	0.008738389292552414	-0.0931543824960312	0.022788634079386683	0.02078745737484371	-0.013032924901355976	0.06339823067339258	0.04793240918213798	-0.026533790273029937
Q284_R29_C2	-0.001714375970024471	-0.02778126452628119	-0.13257878144748883	-0.007531161609492917	0.04807488720478424	-0.10610412733820361	0.058473826255704235	0.16345729847610704	0.1399205176421677	0.1685408057582727	-0.012206388527417799	-0.2931058353223439	0.23780853167748683	0.0625857335568871	-0.03358032011501452	-0.2535293726645592	0.02332871072525543	0.0881278973834513	-0.13348392150971158	-0.05124663894178741	0.08984317687617455	-0.10357192240486388	-0.13766240256200563	0.15989028856998877	0.03396945270418827
Q284_R29_C3	-0.002030696068666918	0.20660682120758106	-0.32784703677607907	-0.19104172652161303	0.0776493737433913	0.38165696794921083	0.37524205980771	-0.5158127300938703	-0.23368568444154894	0.3959911393651888	0.18684913838003792	0.14092471633484596	-0.1791542482399688	0.18539202141259312	-0.031626919998137035	0.09970227219203422	-0.4518677607050384	0.20194530371917704	0.21965826387297155	0.4247827172500058	-0.2830649577014961	0.07650762379986481	-0.11968999657343111	0.5041894317503841	-0.013485562341217025
Q284_R29_C4	-0.11763936893609372	0.2390079519899943	-0.15272338390394619	0.031947734862433005	0.0372571716612021	0.17005228758114255	0.10702729200166507	-0.24798553173324472	-0.17666440949792014	0.313340452089646	-0.07008130854022675	-0.05972866078789709	-0.07545959508516698	-0.2979109399710898	-0.027242563917337703	0.19396269728707416	-0.07819389393759067	0.1118860014423727	-0.1458293083161167	0.16172281764983112	0.0020270565401632537	0.0415904661669657	-0.09404061498879307	0.28041847891405847	-0.14119799238953046
Q284_R29_C9	-0.1655848291959233	0.36087908001848396	-0.25099306313923664	-0.20941299798117946	0.34176738351890995	0.4606647211942585	0.3424726694180521	-0.5485067073951718	-0.35558721654338593	0.6000470241996447	0.2063752668496795	0.39560505411355606	-0.39023567675904447	0.45317518932433326	-0.3576814121852277	0.5115774937125677	-0.6263032712259307	0.2856344964569207	0.46152824362836964	0.5421001812868723	-0.3509634206166796	0.03625513751233514	-0.4103710914686774	0.5292354790214596	-0.14146254875668696
Q285_R20	0.08615132575715088	-0.20871572935258484	0.029435033257431346	0.1856467916585769	-0.07556949262368107	-0.07690290954889946	0.06532716907352683	0.1279862300387905	0.07476233198038315	-0.1970282353816767	-0.01364194408856867	-0.05668743416749936	-0.032884576729532516	-0.28090923993688055	0.2552234240145053	-0.08943321921281472	0.11049876189325614	0.19252645888755068	-0.22359368105975364	0.07644794992016676	0.18256547202044157	0.026912778401627174	-0.051441820344550346	-0.15639859726139602	-0.04461364614849929
Q285_R20_C2	0.10473929675820104	-0.15329242574182475	0.16171910463024386	0.10580047266611516	-0.17438567566940616	0.18206454431705213	-0.3776837579997268	0.43260042885880584	0.1722253188343763	-0.34807243297146234	-0.02577901276156132	0.10155376317963398	0.39920033079760125	0.1005017937371829	0.369847113250526	-0.1613816495096744	0.21565372947633302	0.3396203971696151	-0.49993590846615443	-0.23450157231587912	0.2691656779594981	0.16036476672417815	-0.26038092646347105	-0.1677563279081583	0.3053852289947479
Q285_R20_C3	-0.08218069867304655	0.16658028818986872	-0.352123537331413	-0.25407822421219123	5.687860097514605E-4	0.27617139794233	0.43327369232789464	-0.5074449490028825	-0.33479949414474447	0.3621522092575436	-0.04319469691657961	-0.03482212989320627	-0.20452950229110228	-0.12241325255690823	0.03734705023483752	0.3240866517722066	-0.37523191765292874	0.1885864488708042	0.3568133249404442	0.2651211403178893	-0.10785986931589764	0.047876636516464864	0.06452689971340786	0.4561834876491044	-0.17829552910299704
Q285_R20_C5	0.22990438949767325	-0.10312492869908772	0.10968869095673141	-0.0036580493978607504	0.11980578950063857	-0.17207607315392867	-0.04068312903752345	-0.1655640635287637	0.038445655022788905	0.2812860215518207	0.07766430522319548	0.2572784196008153	0.23236928023708547	0.04474498986706127	-0.22642121910623142	0.13559420745558828	-0.08517415745138927	0.23615004676198548	-0.3186804644904253	0.14338097874747643	0.08830217961492078	-0.054019705773404945	-0.11062983764912487	-0.07514070629773852	-0.009907337010368368
Q285_R20_C6	0.1324581569890162	0.05647433948545647	0.03696501526590277	0.34058862054811995	0.11942314388943533	0.0037212351727297912	0.018294256985594285	-0.14645506303159514	0.007173893468116987	-0.06133713923932882	-0.08136193982626923	0.1200125812158284	0.37411000881213374	0.2553056911996412	0.2836231952606821	0.07956521727786092	-0.10730976063115055	-0.2679235506239701	0.02116501957624291	0.06284439966939236	-0.20930064288923353	0.0021956383992512815	0.22980564983415833	0.2899036847002558	-0.014495588879166868
Q286_R21	0.019153697233860303	0.025047875088799236	-0.05549810851478041	0.04579904323659298	-0.03799744829245443	0.004558590306699576	-0.0071524083188152215	0.005277020408609199	-0.0018739072940759842	-0.022857129460983762	0.01808965462607004	-0.10634252001675774	0.06405565745924001	-0.04310125600272718	0.050631396656527855	0.019871001112558836	-0.014003643059565989	-0.12989346225086848	0.06981221397961096	-0.038579797842239985	-0.06660066714052132	-4.311171725742325E-4	0.06976721573294986	0.0728589459227008	-0.12025104048303194
Q286_R21_C1	0.06742810276583584	-0.2971634169420236	-0.10149068784384482	0.10588867110189164	0.007658417807333023	-0.16336336675745564	-0.20264525298178043	-0.03553700069884847	-0.10004612302207239	0.07616239747184073	0.08694539007119373	-0.1053936016176084	0.16987254037086147	0.25480860772206965	-0.03925432708829242	-0.08153106708028784	-0.12970058785005703	-0.006917934547017113	-0.17589978144960816	-0.06758194361683877	0.08560651662136745	0.1792405235115156	0.1271268309922937	0.3373393623668692	-0.1715139595601724
Q286_R21_C3	-0.019312142442715487	0.07431682944969652	-0.2650393780021911	-0.20105073061863335	-0.16290205667383445	0.02488992401549643	0.10459243699993692	-0.3577808809867278	-0.06137322389858	0.08047372366646238	-0.016757674902494274	-0.1464969180923064	0.06133017204432143	-0.3518764063123914	0.0732427708542316	-0.16992907316381092	0.008402695882272814	0.28875475196818534	-0.02449334188020721	-0.0998882552793331	0.04332968973401369	0.0134202266236337	-0.05745273640442587	0.2785360948611577	-0.038231027179468496
Q286_R21_C5	-0.02333431312369046	0.13852551448804742	-0.10663950801734591	0.09440919141138944	0.0924142653405591	0.07957022010757499	0.16794228109073603	-0.3058259853450556	-0.12335404464499715	0.18663303014300153	0.14031578439877765	0.06589865290892505	0.1640874108509028	-0.033518122003588155	-0.07886234355091434	0.13036831984883993	-0.1425812982956349	0.1884181756128687	0.026655878757070196	0.07803582871486969	-0.16278985752639039	-0.19902207928263663	-0.18910319690639732	0.08550357172617613	-0.1906843843630333
Q286_R21_C7	-0.10040868207225638	0.23166188333759966	-0.1596789008216599	0.0537014015436315	0.15731745432048402	0.28483946059341864	0.05575574857381233	-0.24238281257025912	-0.20023111967516113	0.18307534620513832	0.026340889640888366	0.12416456548244185	-0.17292200873304606	0.037706074936562285	-0.01934538234888211	0.23971518259417296	-0.18703923441348158	0.20134926095414218	-0.029166464296074435	0.3003635217235211	-0.13770374501871277	0.01875359647779518	-0.24232617002380996	0.3238312142579015	-0.05622949658252857
Q289_R35	-0.016663560812107552	0.0937275654024288	-0.29773882239133354	-0.09009658791067553	0.11145865978656688	0.24174629288788116	0.2562714747743968	-0.5892698536294962	-0.09532664649540075	0.38594580949323604	0.2436169680527699	-0.04131064987039596	0.058971005701891344	-0.08565787663880142	-0.035090944186912096	0.21221966280873275	-0.49312854057124356	-0.06783327469615745	0.22785810939127218	0.41900213641454503	-0.15928107288619145	0.04375228991914334	-0.0340070737389597	0.49139954848408024	-0.19879240728246608
Q289_R35_C1	-0.007289265620763605	-0.24725799380373908	-0.04556159509994139	0.0019794599645201684	-0.28810531273342804	-0.22683061655045778	0.017623491966699174	-0.0567787869674731	0.35627875556801675	-0.154522957581052	0.0031305381005606358	-0.4295915033958632	0.3954364456809101	-0.5294861208254056	0.10108079168844306	-0.41839721372337135	0.270651425516387	0.24643121846403432	-0.1833189961920078	-0.15624697249460512	0.40670152458453385	-0.12504190511074137	0.06800676102427138	0.12467801143338939	0.219774229246286
Q291_R34	-0.08524291062502987	0.007953945215658781	-0.03773104305913036	0.03419655216531916	0.0022025161505954045	0.015794638277384275	-0.025545566063748484	0.02545569432934016	0.08694982696608163	0.03731100475907067	0.008218433263875202	-0.058447103093679106	0.08005872047771513	-0.06499865192065624	0.041729101654585876	5.921128565921591E-4	-0.05778554348891271	0.003356684857149444	0.04660161999965294	-0.04074011321314966	0.03404410832427893	0.015557247649863904	-0.04942406285302383	-0.009427510382182544	-0.005132991042101781
Q291_R34_C1	0.018797367458941238	0.4121607958755008	-0.35190662770953696	-0.16398563795137486	0.3487507993139995	0.4492257485713344	0.4229654637722478	-0.5267098449353941	-0.19830999463176976	0.5980662302063494	0.2509092418631441	0.32583051801439905	-0.05185761187790221	0.13802493958221715	-0.3754463886366234	0.4050586598991205	-0.5994212523955769	0.34604901104608826	0.41215812212924907	0.5118891635002913	-0.27294764904595625	-0.14368651799544474	-0.4090576305981557	0.5589490016399775	-0.07702402950198795
Q291_R34_C3	8.370876712282021E-4	0.36568519660276544	-0.2939991244635478	-0.2505744125817249	0.2658909218699011	0.31203708139057207	0.3153001476599584	-0.436228877427632	-0.2808305476605068	0.3839364664576228	0.1689664990042652	0.3096413519300817	-0.03887263535277183	0.2823845507610679	-0.3523798204212298	0.3266541836112181	-0.44440947333338326	0.2937893210528683	0.33526049113802076	0.4440669013112455	-0.309501318413978	-0.07966200214605183	-0.2656361310135085	0.4767900732897796	-0.21810933651603476
Q291_R34_C4	-0.08346790637258449	0.18555219227522365	-0.18211184171110678	0.036436832626499355	-0.0085808033647157	0.10361256408078959	0.2770030171148655	-0.34209823211988166	-0.13777682967041513	0.3302941264493155	-0.07288140688198891	-0.17278851020394673	-0.02152974289265993	-0.4166824260514163	-0.032634379664656224	0.11387111954882737	-0.051918699688399746	0.12278984383866623	-0.1764204469136368	0.07714586138647547	0.071110438439203	-0.05064579630478394	-0.018993961475099477	0.25761807283668287	-0.1574253343654812
Q291_R34_C5	-0.08346790637258449	0.18555219227522365	-0.18211184171110678	0.036436832626499355	-0.0085808033647157	0.10361256408078959	0.2770030171148655	-0.34209823211988166	-0.13777682967041513	0.3302941264493155	-0.07288140688198891	-0.17278851020394673	-0.02152974289265993	-0.4166824260514163	-0.032634379664656224	0.11387111954882737	-0.051918699688399746	0.12278984383866623	-0.1764204469136368	0.07714586138647547	0.071110438439203	-0.05064579630478394	-0.018993961475099477	0.25761807283668287	-0.1574253343654812
Q300_R18	-0.024704625834019577	0.06607641696759016	-0.04029867736291469	-0.019688437833328187	-0.005138677872529558	0.046669183782833454	0.057324067600175145	-0.14456445119471148	-0.012080234334762437	0.0628641950909584	0.04444492795613039	0.004207617908258486	0.05475370589583344	-0.04649151688453236	-0.013665467737929022	0.04278082353172967	-0.0793028690087915	-0.01446787433065788	0.003501163343952037	0.04556883682090038	0.04505254306029893	0.003935319881439507	0.03132415789913532	0.06349296662236709	-0.05441750382985818
Q300_R18_C2	0.1328571625983968	-0.08141841856484208	-0.06046541732964553	0.01751957856942894	0.05938182733335438	0.014297589823590242	0.18515996617265904	-0.32234129912146237	0.013409463690892178	0.18774171776294965	0.07196952056079747	0.09899156573463706	0.02006139020932963	-0.08396401780239114	0.04324074218592726	-0.04521281272662278	-0.19428932508075003	0.11457884014462136	0.014077443271716132	0.2911273910449668	-0.011536813123584481	0.04628801023895356	0.055110819778108486	0.23632911609297771	-0.06094628984501262
Q300_R18_C5	-0.05208733013179584	0.3719465770797132	-0.3424919757880822	-0.3223469641097488	0.16847480433514045	0.39154924761002996	0.45551119833435444	-0.6124068645239026	-0.2446462762902279	0.5857000147935354	-0.012126333751143116	0.11811176762313969	-0.2123560336726135	-0.014487594879944218	-0.09854454135442912	0.3347687807104483	-0.507312705196698	0.21594651292915074	0.5518951821680005	0.4880609697326269	-0.17263467861653395	-0.05490739496237351	-0.06245811498690295	0.6000987464543893	-0.15050342324415086
Q300_R18_C6	-0.03415017091935482	-0.12109838087585593	0.05348632027743604	-0.01809718085402484	0.05112890184087782	0.08127230836383004	-0.23065714607614893	-0.06542451150077387	0.24727189526612794	-0.041408430307862475	0.1499484155489832	-0.101387160162823	0.25850111120988134	-0.16259108159177443	0.0721199871247517	-0.034904140602892555	-0.03864176584263914	0.20662509728843717	-0.22587206661570255	-0.039714027854605476	-0.0520923615889103	-0.005488571916549266	-0.1352357690617981	-0.1264124202614477	0.13164040553135453
Q300_R18_C8	0.2210724870308227	-0.00371886899026005	-0.004599873457717016	0.19181929232508477	0.2958795251204779	0.08254604362543114	0.032317267234976355	-0.2981665421168823	0.03303134128252953	-0.11802668068631701	0.03652614248504238	0.09222419845014443	0.13458153848935187	0.32859728473999766	0.3038772853271027	0.11314447836975333	0.03942095956337866	-0.20970100972925973	-0.029546427663047874	0.29100864986078334	-0.17633390017249392	-0.09548036679169836	-0.02457944375101028	0.053917896149951204	-0.098037937401037
Q302_R74	-0.21769092885574529	0.3071091816591718	-0.27442699770582557	-0.26847071383472226	0.305720428115619	0.43933111025517074	0.28103898970452174	-0.5772612554827609	-0.34528340722487383	0.6379858133781189	0.21259455667318278	0.3817329104196411	-0.3263139756448992	0.44565385585275674	-0.4691837594795912	0.5262862595331845	-0.689897319632217	0.35942784147601875	0.3624864677219803	0.5745764118747592	-0.3689460769415715	-0.03970071366999246	-0.3329128233089561	0.5130179516326157	-0.10456134538123445
Q302_R74_C1	-0.06711366537201835	0.077167119398093	0.0037988141984276777	0.18719784777886925	-0.14740101484321147	-0.05752107054892787	-0.05966396936828392	0.007109950410708351	0.012318360693547942	7.459215788244766E-4	-0.03876765699064905	-0.20214225203146294	0.15060274746064892	-0.45144667778092573	0.07944176447300662	-0.08008650323002882	0.17816885696159063	0.16318598550824803	-0.41320960874502705	-0.09811473475773262	0.1639647893888339	-0.032387117000521735	-0.027749059786703806	-0.0019777482307606537	0.02245068153648339
Q302_R74_C2	-0.06711366537201835	0.077167119398093	0.0037988141984276777	0.18719784777886925	-0.14740101484321147	-0.05752107054892787	-0.05966396936828392	0.007109950410708351	0.012318360693547942	7.459215788244766E-4	-0.03876765699064905	-0.20214225203146294	0.15060274746064892	-0.45144667778092573	0.07944176447300662	-0.08008650323002882	0.17816885696159063	0.16318598550824803	-0.41320960874502705	-0.09811473475773262	0.1639647893888339	-0.032387117000521735	-0.027749059786703806	-0.0019777482307606537	0.02245068153648339
Q302_R74_C3	0.0030464004650762556	-0.138075408838033	0.11991630904315792	0.14729692542858966	-0.23398372693926142	-0.02737459227754502	-0.1945433166123043	0.4159850966121689	0.13563826917026564	-0.45921054741530765	-0.06869180443168958	-0.04771426731254113	0.30805806254303314	-0.010940435984068523	0.35216139189254375	-0.27434931549223784	0.23819633406521673	0.2639165593041352	-0.42944787765862713	-0.25974837313180776	0.23673650977889565	0.10736431786699686	-0.051442788554608224	-0.041415041702285015	0.2153754034276635
Q302_R74_C4	0.13628393764347474	0.06137410788983483	0.05946961530595014	-0.023622768072058486	0.1041603605717891	0.18356599853600042	0.11096012441689013	-0.4327192577744512	3.03400624230621E-4	0.18876428229570583	0.07496098214690915	0.23264651150918408	0.2673187129030003	-0.1400644170070977	0.12047151684308345	0.18436188024573455	-0.15339784401592538	0.12335165440984942	0.285226129882657	-0.026571239527275164	-0.17748423124933432	0.01952370172119378	0.14205018170631986	0.27160129685792667	-0.12657640595104808
Q302_R74_C5	-0.10466374320415793	0.22967345012921078	-0.19954260533314475	0.02085777055538883	0.11779748809179667	0.22881353638228039	0.14441900298468335	-0.3117585915032926	-0.19892569790963502	0.36634964212028126	0.05348366659313702	0.027633269357764716	-0.10673150690392304	-0.195907360727736	-0.1029891382285944	0.28740638829131343	-0.19482673409460546	0.1571252537458704	-0.04476703904444006	0.2816538784318198	-0.1272962571387108	-0.02480498029407756	-0.1097373513389859	0.317391971142645	-0.057368745321590614
Q302_R74_C7	0.13716895625159972	0.032713234898453375	0.049473729684001516	0.17355062618338196	0.1781960181406596	0.14108919485399224	0.19990923186546136	-0.16020479788671937	0.06516428204270353	0.10462425048228874	-0.022951641187801984	0.18461020428632396	0.16377113262030019	0.0316960837390971	-0.0753487107060966	0.24451424813562764	0.21055713585717223	-0.018352640073304317	-0.2853375778398733	0.0858299326939142	0.01762395646856005	-0.11997971552652693	0.13057589746207554	-0.10006898700660269	-0.02523121152111575
Q302_R79	-0.033595674340138715	0.051114958028510946	0.046893727911875314	0.10376763139813251	0.01925300406121256	0.029672791183420345	2.9380562769188416E-4	0.04191942166415462	0.020946046695624602	-0.007018046663892392	0.0547963735687062	-0.07641752719840077	0.12229514963615261	-0.04649270132031067	0.10132521568136828	0.0485558089357475	-0.010054090418952222	-0.003670605302196945	0.04427241357368091	-0.02721561443703317	-0.03389622076850092	0.013048091271683755	0.07606347033612164	-0.056668448227561445	0.06715136174399963
Q302_R79_C1	-0.18065216921933686	0.3384077315098707	-0.28143456741862477	-0.2540756823901268	0.01011210526846583	0.28426819148044036	0.3555358438476918	-0.5623636381995412	-0.2793677651951582	0.47419378216404234	0.04044865025519618	0.10934129372210546	-0.2545619360958937	-0.22095548849777186	-0.06455726071232758	0.10380570378705146	-0.28299211961433296	0.3043169742732918	0.5427459824509118	0.30387764042160736	-0.09942126474673253	-0.02092962129624284	-0.16756867069528067	0.5475632134604025	-0.16151107499951806
Q302_R79_C2	-0.04382339238373273	0.20694300833980628	-0.09688158216021793	0.06501534234177034	0.035514756727034975	0.18390171576014808	0.17931716154855437	-0.17156084061945784	-0.2111315263147393	0.4370597298147798	-0.011530700189755548	-0.10283448085285178	-0.11468693258731961	-0.3803392026244133	-0.012114751412111992	0.2534040310479461	-0.14417748667081182	0.13325683484118925	-0.2464779331545129	0.17570169826639442	0.05406854372826564	0.007702371250244055	-0.04181981206305414	0.32410526463226236	-0.12212199640056051
Q302_R79_C4	-0.017336607073712613	-0.08533054049870925	0.11883203276507674	0.2701330767000921	-0.20651156097317636	-0.1471961995632813	-0.3198324399608451	0.2207069866161725	0.22637086330871298	-0.2688339632512269	-0.05530363385515164	-0.2922229187587411	0.2795203401481317	-0.4713679458713308	0.26726956218036235	-0.2095855299798201	0.19343051221216875	0.1575283368517819	-0.5479999880317488	-0.1361388787998085	0.39625041560525887	0.032139082012067534	-0.10919547514221686	-0.2624482930981223	0.19543544326631712
Q302_R79_C5	-0.11458383774268648	0.17532436218516328	-0.07776655939689735	0.09223663055503573	0.08595371316771482	0.146064645455949	-0.050385085542782135	-0.23937212544275202	-0.006785349597748279	0.1714835623076134	0.017908893476216665	0.0757038746577506	-0.03191848910733667	-0.10936821128671528	-0.07565461706609015	0.1919799822248388	-0.22479160314753655	0.23516679336693952	-0.2074497967325682	0.2526600175075273	-0.026414324202908915	-0.021745007991218566	-0.2474841910259634	0.08030380933468209	0.08313138374252989
Q302_R79_C6	-0.03950928994937329	0.24344838986378384	-0.09705745768902678	-0.11136474453129674	0.13803642380364722	0.19222070075149164	0.2964309135076612	-0.4549277179134918	-0.16741877384207834	0.3624272793000948	0.0033274881623602853	0.005850681254053531	-0.08996677692724282	-0.1555577859605161	-0.09281469390067774	0.11126890059939892	-0.3419600751690146	0.09155345063936368	0.3371647403804275	0.2513372453341483	-0.03893520992064634	-0.015352930874189898	-0.16189284146534438	0.30212267408766214	-0.15225538291623025
Q302_R79_C8	-0.1728927703990547	0.3663236511827525	-0.4040219120422341	-0.32235490528980754	0.1147680383839188	0.43337242750258104	0.4980557371035832	-0.6232801216839711	-0.49935337705614247	0.44979340173815346	-0.08000627081716756	0.09093894348730741	-0.3948482890350777	0.12405593560750718	-0.013139040401098949	0.4667632151723342	-0.4808808520606526	0.16756700947303688	0.5859813054412436	0.43503748903250394	-0.25819067305869425	0.16085509147395993	-0.0354861386397221	0.5549005749818674	-0.2518618158462368
Q303_R7	-0.036215241914002015	0.16032322738702653	0.09939976495586397	0.19516256248272115	0.12498996895854216	0.11541469733745119	0.013948031135532139	0.047835677480929435	0.050891780224362054	-0.07295657684652099	0.0502993513799246	-0.15261373812265322	0.10621739943179885	-0.07219424906132747	0.12745051713581507	0.13402091484449535	-0.06732287301947279	-0.06196044441993573	0.16281031177649796	-0.04978986749844552	-0.07575270940789866	-0.17985460169667378	0.07777064560451925	-0.0443294651471749	0.10503995284996245
Q303_R7_C2	-0.03680899962233315	0.21775638563196867	-0.0807518697689416	0.10615365759834985	0.049562220482157984	0.2228775961372026	0.08262455826746293	-0.19623581923374214	-0.11042370187847167	0.35247126105344967	-0.017660771091674566	-0.08955334641215404	-0.05104108002101602	-0.2727143877563451	0.13865442956370405	0.24155475331011034	-0.146552180077756	-0.03737061431233995	-0.1550615807793484	0.12409797565401745	0.04345038335559527	0.06560122125957346	-6.082978540335321E-4	0.20583768276878622	-0.14572862456930544
Q303_R7_C4	-0.12313261547754499	0.23565708196550952	-0.14113504293104168	0.07993835136573317	0.12046858589966677	0.22773547576499956	-0.028285124913632175	-0.15944731946851173	-0.17930667449175067	0.0993966960853295	0.010355736715519733	0.15370810328984735	-0.13973402775502763	0.10298385061493405	-0.019161990392887972	0.21217428589165108	-0.12228420978144423	0.21273657460102607	-0.09108462556342382	0.2441482810396073	-0.1240076215956338	0.0307524081462681	-0.2684125631010366	0.2774551360572967	-0.049010196144231265
Q303_R7_C5	0.011244265893128845	0.0795217040424115	-0.03961618983139858	0.07431046695730952	-0.013476536313812973	-0.013303440560548066	-0.06765094902021128	-0.012131659249150377	0.04101395553508769	0.05561823132653451	0.05525107134252838	-0.058601967006675	0.18954834456921849	-0.05500132869622438	-0.014236074767517738	0.006833472620788523	0.02596138844574104	-0.04249594629837606	0.024423554123403246	-0.05493155211659968	0.014319074533687028	-0.04318108004246232	0.04634332101260359	0.10907537328084237	-0.056162227208122084
Q303_R23	-0.08299554409349377	0.08271214375456301	-0.07007511253208218	0.021630407234258	0.026478582963375755	0.21007860463214978	0.06548549252727269	-0.2107324557774357	-0.09285323165798774	0.24959256095931032	-0.04373097507951418	0.10629804235960837	-0.09424670831845212	0.13641847751630282	-0.0775462219737989	0.18673217950150778	-0.35284834581288116	0.27348603956357914	-0.10869632426895562	0.28477746760560524	0.024097921409838297	0.0025619134050964137	-0.22828834864711917	0.15375454527126814	0.058969131412201274
Q303_R23_C1	-0.0464623569784855	0.27148701343422543	-0.1173311293541283	0.008392258641788365	0.06808503883520196	0.2739283705816788	0.2701859398662155	-0.294995712558573	-0.2858811533331959	0.5083395095082441	-0.05065493788328557	-0.05959351085650561	-0.14292792153117684	-0.34004253271131696	-0.030893582093862452	0.28092116164179726	-0.2399118140065002	0.06264434630751813	-0.1504208369445239	0.20776776683595663	-0.023307388261620342	0.05884535765813367	-0.035111910244942784	0.4341959438175455	-0.21444454755187858
Q306_R20	-0.11554920146300876	0.17647756928762115	-0.20050388812174802	0.06717875372339974	0.06919742754665326	0.17477383523804615	0.22414134784988293	-0.3768579692381449	-0.10046675261886014	0.22417573889628123	-0.09434228305615207	-0.06687913046735029	-0.02985278902195886	-0.34138455085429403	0.03239972886924832	0.1482764988538943	-0.0671660714929538	0.08931139495593235	-0.05996143017311506	0.16058025768707382	-0.06898297868912423	-0.07416679818067759	-0.06106219793459484	0.34064277839999296	-0.05670092958576802
Q306_R20_C1	-0.20092396262628195	0.1994168104857865	-0.3707077586837038	-0.23959052610412274	-0.03381353691038544	0.18770125497798967	0.33391828281119545	-0.48195185633979387	-0.24903086340496666	0.06768000073374014	-0.04919202562362805	-0.037677753258679086	-0.1793045272048928	-0.042528664633965506	0.0591446896502932	0.16151820175430096	-0.23427823488366076	0.23390596486850548	0.3721395704580166	0.0643253896435736	-0.17942657908607576	0.0395274175258209	0.0427824691703176	0.3769576911835844	-0.18386130177527246
Q306_R20_C4	-0.10356215023905115	0.20159320004533404	-0.2875856343396952	-0.1776589738413488	-0.006798451485554741	0.17711568060775576	0.3773680695851653	-0.3883298118341742	-0.15578882796047003	0.2103863643251474	0.03933568238117855	-0.11125621931778334	0.10424312505223397	-0.20133133729373331	0.06785061763997875	0.13373171080606544	-0.17309910062784964	0.24276965240613832	0.29899804355048865	0.186580456110134	-0.12823466598551805	-0.014607058951337732	-0.03884243918350616	0.5273956593160907	-0.054613580756061965
Q306_R20_C6	-0.13246204191003755	0.3041713285645128	-0.3839274290800658	-0.27625456154856876	-0.04708424073082948	0.33160110101828505	0.42456306249126585	-0.4941823289074032	-0.4068318830321261	0.2654453576182957	-0.03895072870802404	0.15975016408746048	-0.25867134681332776	0.23900984195835012	0.013958393568759489	0.2861135129117877	-0.3231131087738809	0.22937245540410778	0.36666786032593246	0.3453843958228019	-0.3316946538010187	0.20435743142344284	0.02450985822714956	0.5074014052208405	-0.10950131303222742
Q306_R20_C8	-0.18636008263606804	0.415603282732198	-0.3136550902550953	-0.1736376616293926	0.3008430281812577	0.4512651802375153	0.3134637565391679	-0.5652257924136699	-0.3828798216615612	0.6178642323439543	0.1883672592256669	0.31285162126200194	-0.3233780123695604	0.1403335972240592	-0.3768540010337913	0.521890487934889	-0.5990332310947644	0.3168614850946514	0.2565486147075395	0.55294640572868	-0.3697955906576551	-0.016860418598702114	-0.38566869575672913	0.5748814830992464	-0.1319290964226873
Q308_R32	0.18918765848802754	-0.23383663586100584	-0.21057114576900476	0.2603870967048637	0.08837333874756535	-0.012635389200463145	0.18121994889408163	-0.21771961581254914	0.1612003045586486	-0.23110768460518433	0.2268277506423181	-0.0032264197188524857	0.3491671551563576	-0.14534470144905987	0.17672578467578504	0.23662096815451808	-0.3189675560001066	-0.14079637050961125	-0.23682963374859786	0.30042772140994844	0.13998338681885467	-0.16583747682249256	-0.18710765239310992	0.2330755556716498	0.10329722181717664
Q308_R32_C2	-0.12305566314519176	0.03665704672838312	-0.2763293192816232	-0.1285375801807657	-0.12354374016756053	0.12700960910851122	0.20627049034887782	-0.2557607278342103	-0.20286744602130324	0.010927622383784204	-0.08192255168597037	-0.01135287291333309	-0.08659635587953066	-0.16441314108018745	0.14912938868878275	0.11231909201339124	-0.042830944493370326	0.2272649441730274	0.1650712382694131	0.06456155248531156	2.0712498889970793E-4	0.06748012881435679	0.022343040461603035	0.06612639476060693	-0.16858003098485416
Q309_R9	-0.16332307952476843	-0.005791850534587996	0.0037839080305544764	0.020778124476791997	0.04432791907314331	0.03190676465887174	-0.047516901405585864	-0.017893156756831792	0.14289435836208253	0.07191312669923645	0.09796921027182336	-0.07162498443428783	0.10312223900060229	-0.06214411420326537	0.041448137795866036	0.004218212259582928	-0.09515932087745943	0.10528975170515602	0.10644171791653559	-0.1784681370439431	0.14736888349761348	0.06057442016867419	-8.678477262403779E-4	-0.03552395925588285	-0.036125785346388176
Q309_R9_C1	-0.05941209564892302	0.03821401785822076	0.015550582675435288	0.07504895681574662	-0.053873969104659705	-0.011120662258458378	-0.011607553936913434	0.006299263946401705	-0.023074921979544673	0.01708480466187669	0.016570206455109406	-0.11272041001350155	0.13531983672386944	-0.08819051869009496	0.03601948489479831	0.0030163645266781036	-0.02827300192419233	-0.06632746497087241	0.050892386707972206	-0.03646670432879895	0.09583851073070826	-3.116342288622438E-4	0.05586630030668218	0.0851783028501094	-0.09669781609764759
Q309_R9_C2	-0.23143979639474133	0.4470411418140233	-0.3750373581801667	-0.24897134275474136	0.37152013061739697	0.47260821758852517	0.3718192408122552	-0.6573358569685096	-0.43525974038464754	0.6855079250432271	0.20250869346182668	0.39393001444096915	-0.38275875005549853	0.2702329475715957	-0.46067923499777774	0.5869220318996752	-0.6449196814456477	0.3303640290112948	0.4320135368522402	0.5916456123490986	-0.4602905424758348	-0.03847549092879378	-0.3448944228942579	0.6313942518097482	-0.19909900143212053
Q309_R9_C3	0.00915120181456642	-0.30847396545510575	0.2861711109319979	0.29963761925951615	-0.49457491512115703	-0.4742039935920111	-0.4667612321772153	0.5269113530130214	0.38617057294932133	-0.6454865597504253	-0.11560758674126953	-0.39795502288374957	0.535215647461308	-0.5909269111411491	0.38478286497572867	-0.6074868573805391	0.5246692483362151	0.16975685236096802	-0.703808245062412	-0.5026186650572367	0.6046059057201777	0.054842856388512023	0.0046186528319069695	-0.3992288457738562	0.30729231226815207
Q309_R9_C4	-0.1527141119698474	0.26041498376780375	-0.250940841311607	-0.14246810132774354	0.18686045487382963	0.3178058770234874	0.24385452819380996	-0.42727149884433585	-0.28286785361134376	0.31664594587100264	0.12022100771374342	0.3295109619649522	-0.2534490522422563	0.2532571881617297	-0.22797825855711285	0.29938954670114853	-0.38129771987838007	0.30195001813888805	0.25881159031059287	0.41736978515644435	-0.285082105308619	-0.032824597363219	-0.20714578139001566	0.5069159747016113	-0.10183342294595793
Q309_R9_C5	0.30712618366336153	-0.15069867721927593	0.1916423331861102	0.21139554327758583	0.21104063233341344	-0.12621205601557067	-0.17232511921925758	-0.10511228761097131	0.2099951329525858	-0.016157251740162634	0.0069820929610718	0.2732728338104097	0.28932254348869296	0.2008027570629411	0.09787945454668152	0.15634615590139037	-0.023931904317950628	0.10918497823519059	-0.328143455453354	0.1795653988116214	0.019937072468924392	0.13898388110796941	-0.17347260946348406	0.1374730109262063	0.03477330310955236
Q309_R9_C9	-0.21486597103435207	0.4689585591747574	-0.38390989480460835	-0.2094613805358831	0.44755232865047556	0.568569546333924	0.43127058535837537	-0.6684249842642541	-0.44704858200200176	0.7146310513147313	0.2068981367924494	0.38070368698828444	-0.4471553413693049	0.3391494072821773	-0.43279998822162696	0.6274068376305374	-0.6786892414870634	0.2652939651110973	0.5185747986442127	0.619339496511188	-0.5001940436678012	-0.046471801274517145	-0.35103051004718067	0.6421573255121557	-0.21070690180889315
Q309_R29	0.01264901784565365	0.08038004383504319	0.03941309472715681	0.12322245723632325	0.03591956064712825	0.05140835801453331	-0.010915674388119459	0.04756513893035852	-0.04708349278848268	0.016919073204041717	0.07154419806170514	-0.07478791683340423	0.04377570244609537	-0.07298949819113006	0.060676906449644276	0.1155126559128669	-0.01952893206234029	-0.02274330449701035	0.06456463083187715	-0.00972664655692187	-0.10177611863900633	-0.06409237824210673	0.07257938418634906	-0.02499601376287267	0.05827894928374251
Q309_R29_C1	-0.04149408304107649	0.0637857305770669	-0.23954804614801814	-0.10821271685707193	0.07542755458439668	0.22507182569393586	0.38907938782118373	-0.5255035548457035	-0.08636251370496698	0.34373974130266644	0.10505950303697305	0.13890723228455204	0.0313296209085237	0.07779299787099667	0.021676057202193805	0.14455607632350137	-0.40640142622666126	0.11669034351456271	0.27747219912710164	0.4121209864045455	-0.14962437148290084	-0.06394062376604141	0.0159202128650253	0.39958073067277494	-0.12428628115222745
Q312_R42	-0.08564530135383974	-0.01945108472366974	-0.036829768496991766	0.0688400818847425	-0.10688024549568692	-0.0544972984467979	0.00972805580800823	0.03284633022925487	0.10571308240556279	-0.18711262938426534	-0.08643462859558818	-0.18849905324563107	0.15994640482000252	-0.22915327146191336	0.16282110817174444	-0.10406540344665892	0.2134452091046815	0.057764800848754856	0.0012162202107199828	-0.05521060197471053	0.09732198397628843	-0.02289892394362703	0.1647118912552851	-0.03774055545732505	0.049628758675666705
Q312_R42_C2	-0.1470235675202647	0.2907271482429009	-0.3915314878082501	-0.28168255690883615	-0.007074757003077727	0.37490528055111205	0.39183737146112363	-0.5512435441920948	-0.41789712010067787	0.3427626949805536	-0.07376712963037853	0.07039855458372249	-0.2861156678968539	-0.16748584033965166	0.059139699235311864	0.3500047101916913	-0.28141073563435404	0.28111131240112086	0.39924823525853664	0.3323354827800283	-0.24112011240406883	0.09540763614493697	-0.030828244745723942	0.4979671308698635	-0.22690900765250083
Q315_R36	-0.010577265694463392	0.0011997431014068632	0.02499813673159649	0.01995876839740903	0.03417313428778079	0.0341890014885181	-0.005130926016348608	0.0032558081809686387	0.008145044326743947	0.02468860921164676	0.06735324410954169	-0.04276490715069255	0.10589716412881309	-0.054419324311336364	0.06240708294901179	0.03107873354026878	-0.04082908697086552	0.017878153321299925	0.06510396868868373	-0.019903496862736115	0.027747863360466078	0.05172648766977085	0.07341149329789289	-0.042153512779175686	0.03423320507626836
Q315_R36_C10	-0.07305789652521881	0.20090757698067588	-0.09138482136909032	0.09785888117174985	0.05504381313120897	0.14367930182623573	0.037997797266805564	-0.18853732790501856	-0.10092058789321755	0.264122554741268	-0.029791390325633573	-0.04075765861889737	-0.05461266441289898	-0.2708392123510787	0.04353316567639116	0.21208251669817305	-0.048874392334125744	0.08427879271642001	-0.20199758613796523	0.19993376307712327	0.022612219694833888	0.05319066470118312	-0.09430283519852871	0.2301261682614928	-0.1021253766535018
Q319_R40	0.2324560743040576	-0.36103370415473457	0.19068811843733133	0.08198578351965712	-0.04143413527132018	-0.06108341643301825	0.06553611954997803	-0.23119641210577543	0.052734349491080246	-0.09682225503298786	0.10569496450202405	-0.22400538399986772	0.2951630937469054	0.027860182578411254	0.2610791075520412	-0.024802428718333075	0.0073571950961657355	0.23928565551786218	-0.03365032248799267	0.1447703899487784	0.0774419441074089	-0.0512106459030317	0.051967549509777645	-0.01834470449560246	0.051045693098713436
Q319_R40_C1	0.01001643641270712	0.04312988917337761	0.06761699054016793	0.024749390102668568	-0.059046833511284126	-0.042000944176613764	0.002479444300170985	-0.09269419107659409	-0.05869250830029657	-0.08492031500125324	-0.0900370684635275	0.08854068556224373	0.04763984100823463	0.010189861796753338	0.024122290436960594	-0.06660114541660953	0.0024698704232137022	-0.028410567826125256	-0.0867235249622315	-0.04767489817174346	0.059904411509139756	0.05426906294042234	-0.02393898488113687	0.10260245765227502	0.044350434169789184
Q319_R40_C3	-0.057634733983307096	-0.06516530084417677	-0.19329767311951276	-0.06882884471112428	-0.17533147168186833	-0.06511903790022845	0.13526240674402124	-0.11667014592465541	-0.06625320585706569	-0.25063369869405344	-0.10646305998117969	-0.14214370875117677	0.26422054564838043	-0.25081394074431873	0.2167286716827562	-0.036270064163051556	0.16361006058533115	0.27076744157287286	0.025317717908262784	-0.03413660070301148	0.05240603599706245	0.02636148449382731	0.08139393228291333	0.3490693732759518	0.006474537143914781
Q319_R40_C8	-0.21203174968001204	0.37464739293270055	-0.3543022224660709	-0.17958554397109452	0.3720862594622061	0.468012160837598	0.3576073596936821	-0.6227435777334939	-0.3849614113285616	0.6134496017216167	0.1533739575427373	0.30580851054584846	-0.3425453018875164	0.18362044666683544	-0.34889414401906754	0.5277872510358249	-0.5620973482758043	0.2395575452229879	0.40963768001211204	0.5510063728595954	-0.4357861040309114	-0.058726357273111936	-0.27747768629268604	0.596326745927816	-0.1517325714722372
Q321_R17	-0.03465164095405178	0.01871413390209517	0.09863628299917357	0.07550142325295495	-0.1107643929357596	-0.048429423057275316	0.02162941342131223	-0.09259256404370024	0.08808558983537249	0.16893258455700738	-0.009982418963666735	-0.2489870806541964	0.09462356638741827	-0.37634030939404156	0.09822447846803313	-0.05650261366818127	-0.06357955122476168	0.035152733064514434	-0.37106438640698824	-0.08709305157794275	0.24036728923673706	0.0589915880414977	-0.07409444091439339	-0.011737555038333541	0.10508064436095903
Q321_R17_C2	0.025376059304528496	-0.024870712127576616	0.09661501884458047	0.11142518033048202	-0.16209412871699433	0.08336087433085208	-0.18180808593701245	0.39993877828851276	-0.02255208109423336	-0.38740014691165175	-0.07186928958502212	0.08725767489845251	0.3102717642916036	0.15208681187131798	0.2956067562516924	-0.2149152564230079	0.15791738926899357	0.3173058555779745	-0.38404250888294555	-0.1656095359197241	0.14491179014902444	0.1342625601777285	-0.1499172599480402	-0.040855018514579046	0.1844031182143791
Q321_R17_C4	-0.034154766416124104	0.07431228042035035	-0.2727106409701265	-0.15051116505308407	0.14030366761877835	0.0851111600176905	0.1369465534113684	-0.2911646758604999	0.05799085290941828	0.01800347855920263	0.07288573629632074	0.10034179384352808	0.1455741087160113	-1.6583270131568633E-4	-0.20467675869651128	0.10985943510515683	-0.14364685702390406	0.1792507733683897	0.154184760934621	0.26801094319589397	-0.18659928994602396	-0.16337789270646383	0.009717403732054122	0.3579851253615204	0.062302660908242775
Q321_R17_C5	0.1985309061136605	-0.20935032240500953	-0.04381805729247576	0.11543121088132943	0.038943024524419334	-0.02500883868681284	-0.05551792981028182	-0.07599488195377929	0.26302769413438193	-0.16275047226016323	0.16621499228496486	-0.11817449947316891	0.3244075609171056	-0.17726845942498656	0.07738572504058232	-0.2497011628387791	-0.03239917973400106	0.17393203117111894	-0.24317231991294097	0.12342265193442009	0.21123760761732596	-0.1621298774700008	-0.03036723253756481	-0.13482038001362007	0.08003597609475789
Q326_R25	-0.004658919838339556	0.08498079976358773	0.13071314404725629	0.2062277929913031	0.04086426597856216	0.1085388004032058	-0.031006633221949836	0.06946701027633195	0.07116545291422298	0.062313997436709956	0.031024872752741323	-0.05240149792359811	0.030974458682353954	-0.10783980199976327	0.16417052559546347	0.13722346492674004	-0.10359586402175827	-0.03322030075756279	0.041567239064820606	-0.007864797375911697	-0.11939611275508989	-0.13949604282415654	0.14421478753718103	-0.06358996928243597	0.07563722159270399
Q326_R25_C2	-0.010199623630026723	2.137810457167237E-4	0.06683775965572453	0.07778487897196402	-0.12580176896043405	-0.04119572223380488	0.06689333987822847	-0.09530748977948832	0.12026457947835877	0.15307360458366093	-0.025811808741184404	-0.17751505460768033	0.1419089144370961	-0.36365308909940675	0.0639364039516405	-0.058315805843883815	-0.13316721523063135	0.18172388476906115	-0.35507774258977925	-0.015100155447811238	0.29776570473715724	0.03666670664069709	-0.1389796488657949	-0.048787856817405474	0.14194924065317008
Q326_R25_C3	0.016323328368961068	0.031945647020143804	0.04214118089835997	0.07349016245916846	-0.03507101474670163	-0.019892499186374295	0.07606559246339606	-0.010090939250943466	-0.0023053774811888847	0.09695683558786515	0.03253812800698078	-0.018976441280081965	0.05149033879417462	0.030727702516461158	0.05969387151361503	0.05510201318258539	-0.04863787693813597	-0.03905244461693347	0.02418035965724332	-0.010021487871437206	-0.005208534869023354	-0.029701994437932	-0.043491964219832924	0.001240292301309314	0.005328397353024498
Q326_R25_C4	-0.17466495200435359	0.3681282054315427	-0.27154960409528955	-0.22356208227801627	0.33840262035319696	0.4440131609295947	0.3372484638672219	-0.5490108793519726	-0.3020234920938715	0.6108602656785566	0.23070452699134789	0.3600564138582605	-0.36927661361869507	0.4316104448228595	-0.37570441150325445	0.5066283344106688	-0.6522877841348342	0.289839878173877	0.37756799282694714	0.5349829882474697	-0.3684934209790918	0.027184728769470746	-0.384034775986056	0.5430292808837537	-0.06745267181034452
Q326_R25_C5	-0.087599943637116	0.20370688545592566	-0.3310835232082769	-0.08968905583029042	0.09088762865525903	0.15817972235385197	0.3519943012362898	-0.5654416389598249	-0.2507206895008189	0.34254997683600397	0.20100293066438876	0.037961819094049026	0.11271279732075488	0.12561904449899086	0.024699606158298876	0.30494166798050554	-0.5080423901525561	-0.10928490094361241	0.2086012156191146	0.41412614078676435	-0.0412644893529147	0.07542582546572897	0.061331942555963886	0.5169134978476352	-0.08449052389615969
Q326_R25_C7	0.12908799982344596	-0.20401914032023924	-0.06522626039198862	-0.10805577140103896	0.0282511236526444	0.07626837186822955	0.0035421491520217377	-0.24590888272814795	0.24324008874649072	0.033769465156990114	0.21798050313994796	0.20401418687743028	0.33782925098513994	-0.24464824239978253	-0.06201766135431251	0.1256012309963686	-0.2354687996954032	0.29526920307040316	-0.26929049800713023	0.21426789071386904	0.04808165753993767	-0.11964914391063736	-0.14157162343413082	-0.16362088302410027	-0.041187912947865994
Q327_R78	0.07338463597902396	0.00932779485008441	-0.14709744321781226	-0.1130870770050013	0.01935346471939527	0.15570652335732516	0.2530363036808901	-0.31354663015469764	-0.14979204760913306	0.215842029080604	-0.025541012265581496	0.01463340120755451	0.1015032364962029	-0.18112398335222749	-0.06447530023817143	0.035276197709593095	-0.2288599148938507	0.1176571478508464	0.18953155882101203	0.24469161285160207	-0.09162182294666336	-0.05029716225781731	-0.09646190412311204	0.3072291137627164	-0.05233900430651055
Q327_R78_C4	0.17114573647342465	0.091045401350739	0.10909785847862662	0.17027004426920117	0.18911606410165763	-0.24009828102383368	0.09933124551189842	-0.3313300196269494	-0.026553942881595505	0.30061370589927233	-0.008544306934726393	0.40524418331894235	0.22382005579078343	0.06026521139249854	-0.2597239549797345	0.16034261528094162	0.04342339519703429	0.09181483141255561	-0.31597883995229564	0.19266528086775522	0.04667008154784549	-0.09454890288433965	0.22802840323612641	0.04687540193005761	-0.23296642104588206
Q328_R23	-0.01555625777436576	0.0793380912440999	0.020845946422483785	0.19992474062843374	-0.12395229426117454	-0.08505552711088991	-0.05895150910515089	0.008665978142364125	0.062004148162453684	0.007697087531567544	-0.10021702308027014	-0.251698149370268	0.15416545758980416	-0.43601730324000276	0.12594403492046474	-0.046738408081944134	0.16178083416375255	0.05728663045953388	-0.41223069549097097	-0.0969556452479541	0.2459668849778257	0.017553528186215497	-0.02225383066507134	-0.030075281421594702	0.05626856716514484
Q328_R23_C1	-0.1925891539412798	0.35593347039265344	-0.29476346610199466	-0.10845224849739608	0.24395397358107188	0.4037810811367459	0.292630494305037	-0.544766584078872	-0.25985160061464735	0.548231260113781	0.11940259693618974	0.24308759352578257	-0.24836130607865906	-0.03262719178266066	-0.25194077607494164	0.4539335155825955	-0.48849188479413247	0.2864051203619954	0.20111828827133052	0.48415290022009766	-0.2826339664742514	-0.03699789980098093	-0.308914494607949	0.527923577051313	-0.08011261927923258
Q328_R23_C2	-0.180755687627781	0.33139966967945106	-0.3120048237753272	-0.0380576171037172	0.2731656861304324	0.3557116920967513	0.3461354321336977	-0.5458383113413554	-0.2516596586862563	0.4396947166443356	-0.03299316207838275	0.17093273489510674	-0.22806621564584678	-0.09069524928762987	-0.1211052155520276	0.3708320472380903	-0.27472024410489815	0.09022970718164343	0.32289960013059177	0.3544770580166252	-0.30018216649310303	-0.09049085926592455	-0.09042366969039041	0.5209776117388577	-0.14798737621456706
Q328_R23_C3	0.09846591779177857	0.031358167255189515	-0.19044015854587365	0.00996990384637957	0.08654815449626446	0.22858361528409105	0.21738979081086776	-0.29315359053856044	0.060771050268874485	0.1264106145318126	0.1958675664012878	0.05914861754023259	-0.013375967011526534	0.15004940606814077	0.12200515753276453	-0.10209796097270663	-0.28335766522597056	0.157300397805574	-0.0837148393461002	0.28540989409805256	-0.10964803389225607	0.07535101314171272	-0.1900502893762484	0.09013126808711708	0.02834650765034714
Q328_R23_C4	-0.14717999677473095	0.31342253045476587	-0.23927024869534755	-0.07854640634306395	0.18713456319472221	0.29554424072306323	0.19128210399092294	-0.4357592201946964	-0.28432127286153563	0.45211590795080187	0.10665812355075363	0.16548680026055243	-0.1855594347012132	-0.003681870568574867	-0.23737857620627464	0.36496053083502095	-0.37402489945926665	0.23078890839769958	0.10943021824865047	0.39762607034886255	-0.2479981606910064	-0.03295484274674011	-0.2219488265387144	0.4383271271737949	-0.13828030657829454
Q330_R8	0.07463574399420787	0.13667757849457246	0.19506836078485928	0.24174097784005114	0.010910076397130758	0.10236377737065744	-0.08498854177189091	0.056472875195432315	0.10863566376915806	0.016355588711838707	0.10185676033778461	-0.05507172280326904	0.08415042076744857	-0.07830082141287213	0.19295924182779228	0.13203829321864963	-0.06347409319374805	-0.052829901251550536	-0.0017461947420444374	0.006142008262791904	-0.20543167370992815	-0.19370522883706853	0.13114981787649901	-0.07994408128987193	0.1204622308981379
Q330_R8_C1	-0.04857032001011028	0.15899064503242102	-0.1686770941740811	0.09370363040721572	0.15720445526826443	0.2768799797628033	0.1723000133538946	-0.22283717512312137	-0.19809725201321157	0.39070868324049834	0.060294444808247465	0.016473000684872476	-0.2080254795786993	-0.3310182726267424	0.048859576245514735	0.29194399838807894	-0.1845996032989341	0.1244480008560777	-0.18314816924990535	0.2995623370710066	-0.07390481148293462	0.011716337836578203	-0.10711570560161	0.28407718584306996	-0.11341417103516707
Q330_R8_C2	-0.0838177904541506	-0.005748462522628981	-0.10626776810581609	0.01193299373913824	0.008794418302403413	-0.015161743000331667	-0.11305513316421478	0.032016950478652315	0.15987910103158984	-0.014294388529602929	-0.0628804692731548	-0.20449095495123482	0.10579422977694693	-0.0375971094160764	-0.12119776406207185	-0.15355204389849322	0.11413383305541393	-0.003914491175247865	-0.05453596357987136	0.007982572715141401	0.03132460893644598	0.12228266869196766	-0.06857894133270719	-0.03468133800603039	-0.031047864600861615
Q330_R8_C3	-0.025821768548847195	-0.04049918569701638	0.08700339870667245	0.20707183456152475	-0.2465940845841566	-0.11603987163053242	-0.21405072750359713	0.1740374594844968	0.1424637802682269	-0.10844995134520434	-0.05484846271888156	-0.2895657498390959	0.27529421996746095	-0.48386136364735427	0.167258866721229	-0.13153894800715424	0.1202114541431755	0.194067346125398	-0.5180491414943423	-0.13144749706259987	0.3682440889709641	0.04052397900875084	-0.13152896667160838	-0.18921576614713861	0.16592589972085547
Q330_R8_C4	-0.1816742344767394	0.0983138614433864	0.11931326644956546	0.1406668189198015	0.06637550334658072	0.037891857352920125	0.10473328717966142	-0.09254824919576425	-0.008077518624324717	0.22699751994881912	-0.14099742412279923	0.11956819219540343	-0.036531378104413134	0.01496691322130976	-0.08145260770191726	-0.006167219846031675	0.2532497255586496	0.00398381022784276	-0.05255296473057339	-0.1009990483720688	0.06434338520196603	-0.03455707245539956	0.045488428857901136	-0.20148200744013417	-0.05725939532737065
Q330_R8_C5	0.05109256792517496	0.028311242962982	0.05850559472994776	0.06173366456394088	0.01260810826804478	-0.07677831361819949	-0.028019322228475772	0.005189270462751638	0.05620650399772228	0.004988083579831053	0.19195628412975624	-0.08470355820994323	0.2667663858217539	-0.03372409392049601	-0.07760753003454104	-0.09209201752259003	0.009094437911949938	-0.14983409533926062	0.0541636812637973	-0.09877636070112232	0.04437047784321723	-0.01004486881761355	0.10195328307696791	0.13334051806983946	-0.12127790813009189
Q330_R8_C6	0.07676193194469579	-0.32380990575156443	0.18935376840054724	0.13150507235380365	-0.06343163802935149	-0.045287996234020855	0.10335278964061224	0.09872884741758572	0.2833632548322508	-0.123128242997814	0.10237774900736317	-0.1080705403627249	0.3075648627693497	-0.23463069673654458	0.035186066978914944	0.17260587459520693	-0.10866806360723298	-0.18712832715546152	-0.1897935602126813	0.30356096345222827	0.1376509216990201	-0.13151401397789048	0.15572400153229016	0.11731563703986957	-0.06396435672387629
Q330_R8_C7	0.022758458735195625	0.14760970856343814	-0.12206654321142905	-0.14333973977609704	0.034563453562748474	0.07996701504897939	0.17889705378828183	-0.38874311828564956	-0.051650583015446054	0.2336627856448093	0.006996927831915762	-0.16444742594970443	0.08823501473822841	-0.08197435250176358	-0.05238673319710399	-0.13933236425169646	-0.18023623949554185	0.10047270993346846	0.02801808148712456	0.09860322142436022	0.05025316584513555	0.017295573662883496	-0.04817798361922922	0.2738721989805316	0.005642619170047023
Q330_R8_C8	-0.04257621254449199	0.03633889469014293	0.014757113741518411	0.053012033515354474	-0.03120899739777443	-0.056513169704110064	0.03833555373478965	0.04827649083705963	-0.016712663915445018	0.04250649828712222	0.019167072418350868	-0.1388549807477428	0.204984080016821	0.022455142555700247	0.03782158246261619	0.03890819287931934	-0.09093867041911259	-0.20501149301813207	0.016772768136064674	-0.004457462473069997	-5.77449627504061E-4	-0.002954242859674874	0.10305760798806744	0.17676839989909893	-0.1454496690301375
Q330_R8_C9	-0.0838177904541506	-0.005748462522628981	-0.10626776810581609	0.01193299373913824	0.008794418302403413	-0.015161743000331667	-0.11305513316421478	0.032016950478652315	0.15987910103158984	-0.014294388529602929	-0.0628804692731548	-0.20449095495123482	0.10579422977694693	-0.0375971094160764	-0.12119776406207185	-0.15355204389849322	0.11413383305541393	-0.003914491175247865	-0.05453596357987136	0.007982572715141401	0.03132460893644598	0.12228266869196766	-0.06857894133270719	-0.03468133800603039	-0.031047864600861615
Q330_R8_C10	-0.11233555753846952	-0.005518021233833875	0.0193033989142363	0.09163386082204515	0.08115803277905465	0.016604379056450645	0.02242517397807122	-0.13334106149239036	0.06943146914073332	0.09242282704316944	-0.044016068484626386	0.12332747257472744	-0.07795063210858696	-0.006739391246441406	-0.07185767722534388	-0.034127015451924834	0.2548089470178393	-0.058997858894649056	-0.10280728466139213	-0.020038387814226812	0.10108646999445481	-0.0312784307016337	0.04760613882093346	-0.24020031989225155	-0.06611436526873692
Q332_R2	-0.09470777698697304	0.09285745710195159	-0.06799788419359966	0.13709281286741282	0.06321590394441834	0.10804389676416123	-0.1528885754189208	0.07151801948355037	0.19392591933846345	0.06575279519468481	-0.05000604366736996	-0.20727756281371662	0.15970314947161504	-0.012844265114393457	0.14047411913812796	0.03338352612713964	-0.11619974420958055	0.08860847109408866	-0.027853373547297413	-0.014842252652229413	0.14888535931646588	-0.1476818917439481	-0.15234004300780948	0.14468881900676359	0.17417579304347358
Q332_R2_C1	0.007508748126347541	0.0384054299299303	-0.0636160676162526	0.17675103661066544	0.09759862999745814	0.19363746845461643	0.23419459978525342	-0.24007563418396174	-0.09067862743548309	0.15319636975558698	0.06845588337845418	0.01991839515718984	0.12329339588674927	0.07019747691050052	0.15926021267801616	0.04728372290401399	-0.19303491898637798	0.1307315109803256	0.35663568710972493	0.10862670435050684	-0.04736131132028871	-0.03925725616226125	-0.017961712283450504	0.30400070348950325	-0.030741627770207412
Q332_R2_C3	-0.0422260522988882	0.09950579102175863	-0.00858256921874595	0.12084613871402597	-0.11994388888966505	0.07784614881093128	0.049771500060883975	-0.055837128235587424	-0.05755003434534098	0.22366755505718378	0.017779724098073737	-0.26653269248129163	0.0931557113857788	-0.447769622491593	0.16555331625913852	0.04482712777682021	-0.007237612669333084	0.1019195776180244	-0.3955119252038172	-0.06280422667819606	0.1526212913616415	0.006377544442630474	0.015388867506984396	0.16087437678769104	-0.0346297322243553
Q332_R2_C4	0.1841581566419566	-0.30724548699994936	-0.025428565072632494	0.071292779274479	0.04790053438049068	0.05749321545566638	0.09367136531217903	-0.11017680238381915	0.21928156135563712	-0.17856920247160749	0.16567179271649027	0.07073581571848872	0.3456099683871408	-0.1270790975253362	0.19568123306707486	0.11974333395228458	-0.2648849297511025	0.18426686843190057	-0.2695391333372838	0.28691461824869785	0.07465043741370243	-0.18960572949887003	-0.13661257796298892	0.07288286721430991	0.12824868683396526
Q332_R2_C5	0.026605912609357706	0.13510551147479816	-0.13269465139235392	-0.05601387899243023	-0.013249572209517535	0.20620131614345924	0.02858375327108722	0.02625133129585021	-0.04336352923257725	-0.004680537278498405	0.0967591888481997	0.1416932800328435	0.20413534833677968	0.0687079981596615	-0.032053540670692555	0.06707908504559984	-0.1376609284510708	0.35122104659188524	-0.10231784498885753	0.1328177148331491	0.027986679293196738	0.009216774393218047	-0.300218073070582	0.20008486463306588	0.04387118107094275
Q332_R2_C6	-0.18006700723511831	0.3521639555486166	-0.32059117027520295	-0.07990087328970576	0.26771204729249404	0.3930651160469023	0.41390419816317736	-0.5844729247262199	-0.3070176599784647	0.5459967629386779	0.022546262082121585	0.15664879347576127	-0.2626585698861322	-0.18830697965152438	-0.1833384464821771	0.3993303550432217	-0.33380257878656366	0.14165919787118736	0.31189806095500594	0.3985347778380675	-0.28417579777955604	-0.0712548373344926	-0.12787998891536503	0.5480263826504002	-0.24017202190020806
Q332_R2_C8	-0.13865546832406642	0.33547166090694547	-0.3609246665118234	-0.0030549396866690363	0.09747839416083559	0.2706581027131949	0.36317941012140414	-0.6122534617444072	-0.09249884275801769	0.47793433219864706	0.22200253429874578	0.15323205730128833	0.0739267287746252	0.045585940309852475	-0.1161346630722653	0.17419463774021157	-0.517696697701281	0.11259582991680359	0.4148410387007638	0.4454886706255895	-0.09372197354366904	-0.014953564922440484	-0.09773948290483593	0.5206897440861379	-0.10832509968835162
Q332_R26	0.05802624378331476	0.13495329554149155	-0.011340070652739637	0.15982793228683295	-0.035959814075529735	1.3724482379478346E-4	0.10091634444835176	0.029355605583066033	-0.10301804331083511	0.06495463952981201	-0.04086118747984553	-0.006056646488059485	0.13836969875462943	-0.010658717233583925	0.07605443218118711	0.1117747986808927	-0.08064818453115075	-0.1476710886839025	-0.03295287802875753	-0.026441664384660387	-0.0067200122652569284	-0.07783789948177429	-0.0011725828328644247	0.10475678040859344	0.021879232770495805
Q332_R26_C8	-0.13646227418397494	0.16220884029024907	-0.18921125276765835	0.06821825675792602	0.02574190916794736	0.1949124057314801	0.03393764380978435	-0.22502444280867423	-0.12763675928248025	0.10676070735073015	0.010984528298703273	0.04909016379662088	-0.031218221031489052	-0.2090542247469613	0.041759895366133795	0.1483643458513964	-0.08061651368756581	0.23133609220770765	-0.15793527774824034	0.17408255146584106	-0.07140199759091581	-0.019635016820495416	-0.1921145953491976	0.32906078249129905	-9.496036303648811E-4
Q332_R26_C10	0.1393142307273996	-0.02392172011369424	0.036011131666882704	0.17540221296509903	0.20720638207345038	0.12580678299872539	0.25640962569014186	-0.11055260451055476	0.028990843119497605	0.061693738976767915	0.02512131130123286	0.15361634196418097	0.16502700347937355	-0.028077173997266818	-0.06966852538751803	0.20963374306502724	0.10862358208044189	0.025071052710848054	-0.257498972379946	0.08278326408255597	0.10347146639290228	-0.10696959279170205	-0.03404941761895047	-0.10224517761965324	-0.028934063851710465
Q334_R1	0.02355916885598129	-0.07294886786447914	-0.07142027399619048	0.04367028370165836	-0.02136552500596734	-0.09755295733396116	-0.10965160033830591	-0.016809903339136754	0.1237679173498032	0.09524796168794131	0.15594197255204784	-0.04108376941188856	0.2147987175179386	-0.015833869157441255	-0.032935732425758917	-0.08124859219134421	-0.1179185897811419	0.06037904252729067	-0.009122508773135442	0.08201193557438899	0.07790692365768502	-0.07861606387997376	-0.008578652046784388	0.03510953222164639	-0.03296015066186892
Q334_R1_C1	-0.1546053596467851	0.29788351704752597	-0.28757324619152475	-0.08026425954712986	0.22885882329664647	0.36117506612699973	0.1944066067760895	-0.4563503030425414	-0.297972715925838	0.39615864815842466	0.13277905033209572	0.22551625614368187	-0.23651254783341707	0.11570024465133519	-0.17243346928926007	0.3952827229462958	-0.35716082702623403	0.2295781205825881	0.17289132747565045	0.4300027437541565	-0.32085275415155706	-0.04535680053922263	-0.2108581442485173	0.4846795276763155	-0.1230384994932482
Q334_R1_C2	-0.03806892104102915	-0.11538163072200594	0.2647427940486414	0.10685966768292522	0.026875363370180344	0.012679260374450095	0.05478315154680866	0.002523915426983475	0.06367650416636601	0.058969855455897134	0.14579348667858757	0.034139082767072226	0.023749026176324236	-0.26821135266314705	-0.09221967615750666	0.11041066004546796	0.11027417071707848	0.16360317389916845	-0.09118815518781154	-0.3933335068144212	-0.06573535233674503	-0.041935413336295545	-0.058567333221663215	-0.19525929111320198	-0.01265231287658657
Q334_R1_C3	0.0790032106381254	-0.04630622483601733	-0.12685111468811247	-0.04694415801947663	-0.08771328216286269	-0.06369890725830868	0.11233874121869092	-0.2800905657983603	0.11391540172966307	-0.07623837451776914	0.0480795684359877	-0.1838016028406081	0.2714707021958546	-0.24152064751428273	0.13318255524236247	-0.12410134594322855	-0.04918045798804791	0.04010923353261024	-0.027425729901659437	0.10773961940350162	0.2236704136424708	-0.0461155176381595	0.11099377120195403	0.1490549355013946	0.04824419111699375
Q336_R24	-0.045189128778505804	0.020148439787904964	-0.01451351928957336	0.09060092989249968	-0.0041778833229668254	0.04015272031900257	0.10624627848212363	0.012547178557833548	-0.08576950400574786	0.0515013681785891	-0.07082304493559854	-7.652072286093878E-4	-0.03565269654542499	-0.01095449845342614	0.08207655846005979	0.06441999802675286	-0.15115464846276921	0.11849874838811586	0.08706607937818547	-0.10464139649745602	0.05762892424728655	-0.05067429076228978	0.12916693039290542	0.036480835245594825	0.04326967309801969
Q336_R24_C1	0.06635597130053414	-0.08514290927785584	-0.21074551895164922	-0.0957338724981359	0.05862640842864488	0.05131193410207784	0.3033070478751271	-0.3784417983816619	-0.12446519774256302	0.2092756765933421	-0.0013787779084896115	0.06984146526189762	0.047947571715248764	-0.06650245007297707	0.012710027004103567	0.02943451688284024	-0.23597465538943027	0.12089217652204473	0.13774342794592825	0.31193643253336595	0.021940587403046552	0.024355622624390495	0.10437252040447538	0.3797171416366527	-0.06395558182915222
Q336_R24_C2	-0.19692335063804597	0.33851352356829384	-0.3225790115453917	-0.11087752793634391	0.2980616879119022	0.43704268104466215	0.3405822712093944	-0.5780641862600385	-0.3156203440287129	0.5659325825166913	0.08868214842776109	0.2341282820547056	-0.28174673658625304	0.032351160408640146	-0.21464236795961086	0.4648773567349286	-0.4640458369413269	0.2002022988745412	0.32827994204783945	0.4688704205245284	-0.3482513429306381	-0.07354169525421803	-0.21065708851185172	0.5363591159148869	-0.18712291689621552
Q336_R24_C6	0.0037142410936902392	0.2406060659185806	-0.22180622155782947	-0.04024506040152755	0.125469433719463	0.31562939814727364	0.19580778492073628	-0.21199488202592012	-0.07182515519397532	0.2906068406143268	0.10056082475916134	0.2034139108030087	0.03671856808925433	0.18917089924550098	-0.07854252282889337	0.23845484323932659	-0.2550960538397547	0.13275435720596002	0.04413981400322881	0.22401021459669662	-0.19971589449892324	-0.029658431775236534	-0.18137596061782058	0.31481954263605993	0.09020550856465542
Q336_R24_C7	0.04661668844199909	-0.08677607388030084	0.05632411003348564	0.03702021245906134	0.04964586996783176	-0.11105922484763714	-0.00740080123779429	0.048597816167968946	0.08103157901291128	0.09337349762755613	0.11831632914180841	-0.17020787588425118	0.1259648966804858	-0.11775831952209395	-0.126889685386835	-0.08778906638971852	-0.020658064841190732	-0.03356133340004645	-0.15100114561204275	-0.1752784709877696	0.04775013438091242	0.09057501894334144	0.010321775414708587	0.05842958649573186	-0.02057319349739114
Q336_R24_C8	-0.19278295530885445	0.32169833257621955	-0.39880048972680443	-0.34949702602616556	-0.08440972420315639	0.3085505592476415	0.31292722099645637	-0.5823780513363465	-0.3848770582941115	0.49783632342348577	-0.021441809423822695	0.055898162822002315	-0.25584791861726053	-0.26926151098487905	-0.015749285693206265	0.25510594524894814	-0.38491110968383324	0.36556764635118055	0.39813873691536333	0.040207830650486796	-0.23155039345412068	0.02077243076818063	-0.17100475930325196	0.5182266753171415	-0.296188819778999
Q336_R24_C10	0.026454436691668134	-0.059461107790588094	-0.12757197962173597	0.0033488676202866495	-0.04034275412715157	0.11103078855665098	0.25696507665457313	-0.42449239620621276	-0.07732294125702457	0.17767112459333728	0.18704440445123063	-0.08485909841992927	0.21641696107679426	-0.3002220700956659	0.024339620855068307	-0.01154154330277391	-0.24402025486663922	0.021740453130242136	0.0668292431669249	0.11681924464250049	0.14807616728538625	-0.04619516408396817	0.03428509604055632	0.23863790429073958	-0.02359592499612821
Q338_R2	-0.05320858539265276	-0.04178483139086113	-0.007824171095283798	-0.007086268150424884	-0.020718037472862848	-0.061401649179812244	-0.08183067865012812	-0.03515892606518615	0.0470522392476751	-0.005290628764591297	0.06733275888779869	-0.10371594012053427	0.1052663845503018	-0.09455489934734859	-5.5356769438446046E-5	-0.06282828812053882	0.0170784824383952	-0.062493728426309875	0.016731350667164368	0.020983207588455528	0.09595893873906615	-0.005645901325489274	0.05389036362080423	0.051285637098370286	-0.10771450504119402
Q338_R2_C1	-0.2444987115587704	0.34159615132164634	-0.3956553834202043	-0.3326709354308078	-0.048654876627471526	0.3356784454929072	0.38375016220535924	-0.5730539584852936	-0.4552665315174011	0.3262695520130969	-0.12470726347605944	-0.00630545657348596	-0.228914369480453	-0.16974131394351458	0.0070415760069617	0.29404001745006725	-0.23527788726384638	0.24785992515761388	0.5188139758675742	0.190349826612217	-0.2235367202312736	0.1540234301954442	-0.023162481794113232	0.5257180465734134	-0.23302493004115596
Q338_R2_C2	0.09698684035233904	0.1055671146841944	0.09811135846602063	-0.07718146993967315	-0.14466068868944715	0.13354935025293801	0.0742079670430277	0.06318709299663183	0.050447687065903225	-0.10510207385140764	-0.1069167154727975	0.04511603172061329	-0.10530927754032397	0.055731497345825075	0.1698474800767564	-0.08286343888202664	0.052883179945084534	0.07920023674822259	-0.13442822910465096	0.056557072919642064	-0.08648864516170437	0.013308783592693305	-0.1372937439725934	0.06859401804095407	0.07732195161378887
Q338_R2_C3	-0.034721040373671054	0.05439272013540973	-0.07410288127023291	-0.050756805495896715	0.15644783324774048	0.10009252378589495	0.05551126817840793	-0.316554620284465	-0.02552433341094842	0.11129800818202715	0.1299563428956319	-0.030995552890842014	0.09422236962728964	-0.12327423867463792	-0.05421409539716502	0.06534808224730422	-0.1636983752039991	0.08899584904436011	0.13591737445186516	0.21310376317441865	-0.15093694649791034	-0.10331218618531629	0.014605890838746182	0.03906973700050007	-0.155196091246541
Q338_R2_C5	0.056345448276475814	-0.008346519408643125	0.07100881670339024	0.04068249806155469	-0.11894189048226471	0.027345148815947056	0.05721649814437999	0.03387184301399097	0.04389728761368948	7.446885411099753E-4	-0.02633247680057304	0.07627807920996148	0.034934944261569206	0.012371144577045358	0.12473930682904306	-0.0024332431191611843	-0.01684309530982948	0.06940732172912205	-0.09062644618956779	-0.07280510668147387	0.022497355862495256	0.10110441216543586	0.0014007255597930357	0.12975014051118863	0.1109230681194428
Q338_R2_C6	0.14235891615619203	0.02912075224480424	-0.0017628838817281103	-0.014046234115577401	0.3705578063810374	0.34918125499931124	0.2831999481611931	-0.5447462636149882	-0.1358374065506279	0.3512239585554471	0.3097520362881209	0.2822812473284386	-0.054801177857711283	0.39527611475962016	0.035063893098815635	0.412088822944763	-0.357572638590772	0.008242554605073883	0.3932636587183756	0.48404381312477707	-0.3957358998420507	0.09351416565618566	-0.09709280219808326	0.3833098451917328	-0.3000581708826467
Q338_R30	0.0828640869740573	0.13730632271144477	0.0717705879047727	0.17973570231229025	0.11682740712507456	0.07158646985241598	0.25261202224918283	-0.07081983371411783	0.012128012860242178	0.20867302161028156	0.03816868376687273	0.13981893416730123	0.16770922724290976	0.1714094938968602	0.014870910479434164	0.19478967670372244	0.24780966138335506	-0.03947509891514166	-0.22224108525357883	0.05928432368473823	0.020348573207242947	-0.08217137228279986	0.15479583287334742	0.0034172823068751627	-0.14595152252212623
Q338_R30_C8	-0.19669531654031003	0.41148865414676145	-0.32380246996576595	-0.13602273668846931	0.36908317679317104	0.4919215086240995	0.30598159084785165	-0.5656708104999595	-0.40578824419673665	0.5817331144638183	0.166116151312351	0.3607869369857821	-0.38929169725866897	0.32670008173077725	-0.3358264672795748	0.5412117399913019	-0.5573367620504296	0.3018383296146392	0.38018229537876863	0.542331244911918	-0.4118135200257724	-0.011785536110860152	-0.3681857159520184	0.5664377625209873	-0.17046208772412016
Q338_R42	1.7504248322713683E-4	0.019565350715083443	-0.01328780793720521	0.02125599035800218	-0.055159217450794044	-0.04600787955970768	0.008160558464075447	0.04829364361529307	-0.021490959134053005	0.0063712135864581855	0.04001400687678631	-0.05001337659418411	0.15829313666099173	-0.030258152462225893	0.05480963369004117	-0.021104212611206968	-0.007835844423530717	-0.11605943741351009	0.04785340361933727	0.004722779057126278	-0.0335876412744144	0.022198346348241138	0.052354971623680344	0.06339731863651031	-0.08598682097944196
Q338_R42_C1	0.19312035907748756	-0.06832913288008101	-0.05849039060297581	-0.00801157327491986	0.005883130722321592	-0.010336983813468944	0.08886074191750752	0.050505200696757666	0.22924504272032928	-0.03119208117867579	0.07474295577786313	-0.23847332674003302	0.4043630599981213	-0.3185910871972626	0.21630120586805796	-0.1856359168135855	0.03510580401237358	0.27228582200228074	-0.4346203437474346	0.2481124769831411	0.26771404091764667	-0.07725793411175422	-0.038537755461893454	0.07481371442087405	0.13747221193657794
Q338_R42_C4	0.13053531914819763	0.03796215769782771	-0.16852176212044137	0.013620175090946492	0.0301992672584442	-0.022779217748345064	0.24620269411820875	-0.4315268591152756	0.03263910089907911	0.408092706521793	0.11226586992597867	-0.04153110662733315	-0.03629333718465982	-0.1124748783170117	0.008067312900250895	-0.11460066337677254	-0.3620125256295784	0.0762010600849967	0.1324980673193369	0.20713268063885826	0.10752959352358317	-0.01435923826172	-0.15018043345370327	0.3221102126580089	-0.07087900371282234
Q340_R9	-0.007908874028524217	-1.214983966674251E-5	0.015070394217714876	0.02615825699596788	-0.07177722379807983	0.04144591428600705	0.03138129652713317	0.07263820238262153	-0.08569683661278518	0.014203936375521557	0.025138449581517546	-0.08258034016474657	0.054606081866334574	-0.039406208636592624	0.02916935376607297	0.05241444259460824	0.02375598774925602	-0.033603236680040525	0.09286887018109553	0.05584405951494308	-0.004098055453952887	-0.030094868759573987	0.1029058038033176	0.02663626892314556	-0.10210773230436507
Q340_R9_C2	0.12523066430899482	-0.19418839405910093	0.022433235303791613	0.1593539880220579	-0.06824479262887304	-0.13410929998780144	0.04827920124605614	0.08118705489817318	0.2017944926129215	-0.15172090141577035	-0.1156732569714924	0.22799719481755584	-0.07383578967719205	0.22682453895665947	0.12555879837115513	0.24548984191712592	-0.060033421532981524	-0.1398309090330207	-0.20395739361837306	-0.01262917244699185	0.2114514344190256	0.010214716443040592	0.07944506987929345	0.23188788765123358	-0.07755614334252624
Q340_R27	-0.05017889842626339	-0.021627345652308512	-0.061933129509376135	0.06323998778531655	-0.03198241115742127	0.04327931327497569	0.04412199134724091	0.05788048513020297	-0.03232283070029595	0.0677532105437784	-0.09355185423412002	0.0012238908413136796	-0.042674507010064346	-0.06585343907711157	0.05565036722969902	0.02207733501627435	-0.1359738613186886	0.0939083959279562	0.01648295069837808	-0.09571054982450344	0.08951364265049915	-0.01557882258097744	0.0799646071349059	0.01586630133478327	0.007028555724625502
Q340_R27_C3	0.04760664258996489	0.0658812823894348	0.058969838161520426	0.2714035913750667	0.023740678610939474	-0.04699389145194719	0.039840630926447476	-0.052342533272273076	0.041518898010861574	-0.03810675412672915	-0.06082271009622486	0.1889459761638459	0.3492427909649664	0.043096325617917486	0.2647034691513441	-0.06315043424458902	-0.10258385861106012	-0.1781540446495835	0.20943493792639806	-0.06561730372683457	-0.09116839461503314	-0.004949160779559231	0.21522066563996722	0.2522888216994598	-0.029086009801641277
Q340_R88	-0.028634545143337468	-0.023864233688998576	-0.01148500263963335	0.04358282471641785	-0.02877363787898976	-0.022894469615525624	0.031596616586337084	0.06373166656367253	-0.02805944577014251	0.06469599513639229	0.07177226195252098	-0.07410184419879128	0.15890528224916353	0.006387033631537523	0.06809017642465331	-0.06163745620415047	-0.02505164999756093	0.0273385936284628	-0.003589036634188584	-0.01335362076482129	0.013425245538444519	0.1246315296684845	0.014464039379952684	0.032699244125837995	0.03131254281829671
Q340_R88_C3	-0.2026949026767107	0.38485070370389035	-0.3502505178842361	-0.19668065131701454	0.3077267657486237	0.4253122523943867	0.3406809103451274	-0.5881417848547792	-0.39599939347694046	0.5678303097466673	0.1491761603770989	0.2748326417134169	-0.2940225746829903	0.12279387404604762	-0.2912286034753554	0.4943520629581356	-0.4640387654222075	0.22211943853946747	0.3996835330936854	0.5028604976562634	-0.4049139623280692	-0.06660061964687729	-0.17526758564170467	0.5859554244489152	-0.20907340064124993
Q340_R88_C4	0.07821329305809348	0.009683798478196531	-0.1339985502099747	0.02488653364857157	-0.03739235837765456	0.05189346544015316	0.15487259913912382	-0.21363312943085608	0.07101328367146639	-0.15212909534498226	0.07989709528720952	-0.03598199381654011	0.13598059588955735	0.18404326416809133	0.20667275406286534	-0.16829191234206628	-0.09351737529396398	0.09330339536611285	-0.11130965036504617	0.24828705188645844	0.01070721423191148	0.11442107380438088	-0.019614520734613443	0.1725675627546941	0.10963002670485125
Q340_R88_C5	-0.20973705486310415	0.3749430077074143	-0.3386901316784192	-0.15072661455953626	0.2942200946279757	0.39289112989413083	0.2674420236277719	-0.5538195655114987	-0.34618941377874296	0.47045583654099166	0.1750106733792829	0.32766294365328785	-0.29592904294954875	0.21938155283751612	-0.28729528295971046	0.4758365368795105	-0.4029859978273082	0.26891565315429333	0.3425002669513565	0.487719293434368	-0.40374305152053874	-0.05389754852206025	-0.23541419108127754	0.5622161818881461	-0.15662860802380166
Q340_R88_C10	-0.1799913659998509	0.31039800494971076	-0.3857819371014797	-0.31424475728250595	-0.08662732237526498	0.31033214256113356	0.28881225894054463	-0.5042877425938762	-0.3769836052623309	0.224844611625913	-0.11144835171220872	0.1570808344028525	-0.29489972198075937	-0.19637328438688542	0.033142984723684654	0.22267484887827643	-0.09971554277348993	0.3251986011106081	0.3742824516484288	0.24362452710794655	-0.26408091848616705	0.13199386529529225	-0.06691073585796724	0.4634420462587465	-0.241080589244637
Q341_R26	-0.06890454647058222	0.1393515806906065	0.06782807313522549	0.13402660048761875	0.053706348927223604	0.08130660585418453	0.007344139171400146	0.05919161151660774	0.03898946347287445	-0.027776398547310427	0.0013228379409811893	-0.1232885085503831	0.12029259369625625	-0.12444346778445287	0.09763527454861322	0.09306404103036277	-0.08919248747772156	-0.00539254256505608	0.10076094398228659	-0.06623981366825983	-0.044364844899513325	-0.11090240745725576	0.04907709243495888	-0.03468616495032084	0.037691003692146174
Q341_R26_C1	0.021494833439850817	-0.14921890432411652	-0.12023146152016645	0.08902171475740196	0.11399145053257134	0.04959959594230762	0.1864597996487088	-0.12082742311655686	-0.008860422589440529	0.059535847897158725	0.015111936369568802	0.13145340168203493	0.011039581609470894	-0.08991119450837004	-0.18701431606599714	0.08924191148902282	0.2611062373653089	-0.019518070900408482	-0.14518992600049993	-0.09695606536164857	0.013138401636166612	0.03154011624049443	-0.032177384678272664	-0.26276025562133937	0.012882692024154206
Q341_R26_C2	-0.18925501068317147	0.29022065083658166	-0.36398697306555744	-0.3429778312927162	-0.1437135106364545	0.2528656821106646	0.3320468358484901	-0.5171435801795647	-0.34729932720503215	0.2932052573127684	-0.10966248393509789	-0.033663358206211934	-0.16144734593037918	-0.29029356345825497	-0.005963372494592925	0.1679006685885535	-0.14574966729949665	0.32554587897473747	0.34076455887032064	0.0484467757515459	-0.1539507899147411	0.08364580767073293	0.03582310312212573	0.49293627983112415	-0.1542724739567182
Q341_R26_C3	-0.1785488053438107	0.34720499032632257	-0.36233999921045307	-0.25495566227202987	-0.006664226413528235	0.3442599849508449	0.4645973104226821	-0.620884346258429	-0.3259888269159491	0.5754719869550099	0.09008035988665368	0.05221479697840557	-0.1487930537878635	-0.2342914021597357	-0.1130509139630688	0.13509512810508528	-0.3592668244734938	0.19979516877698064	0.46672658539597506	0.3044520882431633	-0.12588872790224395	0.06408661251053402	-0.10356019728020835	0.5973656080223491	-0.14686785516439851
Q341_R26_C5	0.06409276768867485	-0.09807255703259442	-0.15798783367983826	0.05758249659504681	0.052113568618913135	-0.19205525471399215	0.05458476655466587	-0.10569492878538062	0.1390129799480539	-0.0024402235705134	0.18524784877628692	0.004559269985825806	0.2887305380589124	0.22480643159120084	0.11966570576049389	0.09902300003943591	-0.11724787823425259	-0.11956259567154784	-0.06204507419254569	0.11328048624139654	-0.027948096079217236	-0.03208587477371524	0.018226095760718233	0.3002261192320905	-0.11415651942012596
Q341_R26_C6	-0.21679587454177618	0.449612471533415	-0.38640985143840545	-0.29785549798837985	0.34729611226291	0.4891188214663727	0.454616362891341	-0.6949047900169917	-0.46306959427476085	0.7333972192740685	0.2235168152165432	0.3519165389071768	-0.37086143370915003	0.14072503195166985	-0.4675764520754915	0.5929955012717982	-0.6586597000616362	0.3128792307895769	0.4617170707926772	0.6008782400940283	-0.46773885476074245	-0.06138470459083689	-0.2627788134668694	0.657011747645869	-0.29809400494845684
